digraph Tree {
node [shape=box, style="filled, rounded", color="black", fontname=helvetica] ;
edge [fontname=helvetica] ;
0 [label=<Dew Point &le; -0.169<br/>entropy = 1.13<br/>samples = 22626<br/>value = [4401, 16095, 2130]<br/>class = Cloudy>, fillcolor="#39e581a4"] ;
1 [label=<Pressure &le; 0.037<br/>entropy = 1.188<br/>samples = 9461<br/>value = [3302, 5686, 473]<br/>class = Cloudy>, fillcolor="#39e58163"] ;
0 -> 1 [labeldistance=2.5, labelangle=45, headlabel="True"] ;
2 [label=<Visibilty &le; -0.34<br/>entropy = 1.145<br/>samples = 4345<br/>value = [952, 3025, 368]<br/>class = Cloudy>, fillcolor="#39e5819c"] ;
1 -> 2 ;
3 [label=<Latitude &le; 0.186<br/>entropy = 1.283<br/>samples = 1094<br/>value = [151, 704, 239]<br/>class = Cloudy>, fillcolor="#39e5818b"] ;
2 -> 3 ;
4 [label=<Pressure Trend &le; 0.532<br/>entropy = 1.17<br/>samples = 661<br/>value = [131, 460, 70]<br/>class = Cloudy>, fillcolor="#39e5819e"] ;
3 -> 4 ;
5 [label=<Visibilty &le; -1.616<br/>entropy = 0.908<br/>samples = 320<br/>value = [85, 232, 3]<br/>class = Cloudy>, fillcolor="#39e581a0"] ;
4 -> 5 ;
6 [label=<Humidity &le; 1.144<br/>entropy = 0.229<br/>samples = 65<br/>value = [1, 63, 1]<br/>class = Cloudy>, fillcolor="#39e581f7"] ;
5 -> 6 ;
7 [label=<Visibilty &le; -1.657<br/>entropy = 0.722<br/>samples = 5<br/>value = [1, 4, 0]<br/>class = Cloudy>, fillcolor="#39e581bf"] ;
6 -> 7 ;
8 [label=<entropy = 0.0<br/>samples = 4<br/>value = [0, 4, 0]<br/>class = Cloudy>, fillcolor="#39e581ff"] ;
7 -> 8 ;
9 [label=<entropy = 0.0<br/>samples = 1<br/>value = [1, 0, 0]<br/>class = Clear>, fillcolor="#e58139ff"] ;
7 -> 9 ;
10 [label=<Visibilty &le; -1.668<br/>entropy = 0.122<br/>samples = 60<br/>value = [0, 59, 1]<br/>class = Cloudy>, fillcolor="#39e581fb"] ;
6 -> 10 ;
11 [label=<Longitude &le; 0.471<br/>entropy = 0.65<br/>samples = 6<br/>value = [0, 5, 1]<br/>class = Cloudy>, fillcolor="#39e581cc"] ;
10 -> 11 ;
12 [label=<entropy = 0.0<br/>samples = 5<br/>value = [0, 5, 0]<br/>class = Cloudy>, fillcolor="#39e581ff"] ;
11 -> 12 ;
13 [label=<entropy = 0.0<br/>samples = 1<br/>value = [0, 0, 1]<br/>class = Precipitation>, fillcolor="#8139e5ff"] ;
11 -> 13 ;
14 [label=<entropy = 0.0<br/>samples = 54<br/>value = [0, 54, 0]<br/>class = Cloudy>, fillcolor="#39e581ff"] ;
10 -> 14 ;
15 [label=<Wind Direction &le; -0.019<br/>entropy = 0.976<br/>samples = 255<br/>value = [84, 169, 2]<br/>class = Cloudy>, fillcolor="#39e5817f"] ;
5 -> 15 ;
16 [label=<Latitude &le; -0.114<br/>entropy = 0.696<br/>samples = 112<br/>value = [21, 91, 0]<br/>class = Cloudy>, fillcolor="#39e581c4"] ;
15 -> 16 ;
17 [label=<Longitude &le; -0.34<br/>entropy = 0.788<br/>samples = 89<br/>value = [21, 68, 0]<br/>class = Cloudy>, fillcolor="#39e581b0"] ;
16 -> 17 ;
18 [label=<Humidity &le; 0.58<br/>entropy = 0.297<br/>samples = 19<br/>value = [1, 18, 0]<br/>class = Cloudy>, fillcolor="#39e581f1"] ;
17 -> 18 ;
19 [label=<entropy = 0.0<br/>samples = 1<br/>value = [1, 0, 0]<br/>class = Clear>, fillcolor="#e58139ff"] ;
18 -> 19 ;
20 [label=<entropy = 0.0<br/>samples = 18<br/>value = [0, 18, 0]<br/>class = Cloudy>, fillcolor="#39e581ff"] ;
18 -> 20 ;
21 [label=<Visibilty &le; -1.418<br/>entropy = 0.863<br/>samples = 70<br/>value = [20, 50, 0]<br/>class = Cloudy>, fillcolor="#39e58199"] ;
17 -> 21 ;
22 [label=<Visibilty &le; -1.517<br/>entropy = 0.994<br/>samples = 22<br/>value = [10, 12, 0]<br/>class = Cloudy>, fillcolor="#39e5812a"] ;
21 -> 22 ;
23 [label=<Wind Direction &le; -2.756<br/>entropy = 0.439<br/>samples = 11<br/>value = [1, 10, 0]<br/>class = Cloudy>, fillcolor="#39e581e6"] ;
22 -> 23 ;
24 [label=<entropy = 0.0<br/>samples = 1<br/>value = [1, 0, 0]<br/>class = Clear>, fillcolor="#e58139ff"] ;
23 -> 24 ;
25 [label=<entropy = 0.0<br/>samples = 10<br/>value = [0, 10, 0]<br/>class = Cloudy>, fillcolor="#39e581ff"] ;
23 -> 25 ;
26 [label=<Pressure &le; -0.312<br/>entropy = 0.684<br/>samples = 11<br/>value = [9, 2, 0]<br/>class = Clear>, fillcolor="#e58139c6"] ;
22 -> 26 ;
27 [label=<Longitude &le; 0.978<br/>entropy = 0.918<br/>samples = 6<br/>value = [4, 2, 0]<br/>class = Clear>, fillcolor="#e581397f"] ;
26 -> 27 ;
28 [label=<entropy = 0.0<br/>samples = 2<br/>value = [0, 2, 0]<br/>class = Cloudy>, fillcolor="#39e581ff"] ;
27 -> 28 ;
29 [label=<entropy = 0.0<br/>samples = 4<br/>value = [4, 0, 0]<br/>class = Clear>, fillcolor="#e58139ff"] ;
27 -> 29 ;
30 [label=<entropy = 0.0<br/>samples = 5<br/>value = [5, 0, 0]<br/>class = Clear>, fillcolor="#e58139ff"] ;
26 -> 30 ;
31 [label=<Visibilty &le; -1.093<br/>entropy = 0.738<br/>samples = 48<br/>value = [10, 38, 0]<br/>class = Cloudy>, fillcolor="#39e581bc"] ;
21 -> 31 ;
32 [label=<Latitude &le; -1.125<br/>entropy = 0.258<br/>samples = 23<br/>value = [1, 22, 0]<br/>class = Cloudy>, fillcolor="#39e581f3"] ;
31 -> 32 ;
33 [label=<entropy = 0.0<br/>samples = 1<br/>value = [1, 0, 0]<br/>class = Clear>, fillcolor="#e58139ff"] ;
32 -> 33 ;
34 [label=<entropy = 0.0<br/>samples = 22<br/>value = [0, 22, 0]<br/>class = Cloudy>, fillcolor="#39e581ff"] ;
32 -> 34 ;
35 [label=<Latitude &le; -0.658<br/>entropy = 0.943<br/>samples = 25<br/>value = [9, 16, 0]<br/>class = Cloudy>, fillcolor="#39e58170"] ;
31 -> 35 ;
36 [label=<Wind Direction &le; -1.236<br/>entropy = 0.811<br/>samples = 8<br/>value = [6, 2, 0]<br/>class = Clear>, fillcolor="#e58139aa"] ;
35 -> 36 ;
37 [label=<Humidity &le; 1.109<br/>entropy = 0.918<br/>samples = 3<br/>value = [1, 2, 0]<br/>class = Cloudy>, fillcolor="#39e5817f"] ;
36 -> 37 ;
38 [label=<entropy = 0.0<br/>samples = 2<br/>value = [0, 2, 0]<br/>class = Cloudy>, fillcolor="#39e581ff"] ;
37 -> 38 ;
39 [label=<entropy = 0.0<br/>samples = 1<br/>value = [1, 0, 0]<br/>class = Clear>, fillcolor="#e58139ff"] ;
37 -> 39 ;
40 [label=<entropy = 0.0<br/>samples = 5<br/>value = [5, 0, 0]<br/>class = Clear>, fillcolor="#e58139ff"] ;
36 -> 40 ;
41 [label=<Pressure &le; -0.662<br/>entropy = 0.672<br/>samples = 17<br/>value = [3, 14, 0]<br/>class = Cloudy>, fillcolor="#39e581c8"] ;
35 -> 41 ;
42 [label=<entropy = 0.0<br/>samples = 2<br/>value = [2, 0, 0]<br/>class = Clear>, fillcolor="#e58139ff"] ;
41 -> 42 ;
43 [label=<Longitude &le; -0.118<br/>entropy = 0.353<br/>samples = 15<br/>value = [1, 14, 0]<br/>class = Cloudy>, fillcolor="#39e581ed"] ;
41 -> 43 ;
44 [label=<entropy = 0.0<br/>samples = 1<br/>value = [1, 0, 0]<br/>class = Clear>, fillcolor="#e58139ff"] ;
43 -> 44 ;
45 [label=<entropy = 0.0<br/>samples = 14<br/>value = [0, 14, 0]<br/>class = Cloudy>, fillcolor="#39e581ff"] ;
43 -> 45 ;
46 [label=<entropy = 0.0<br/>samples = 23<br/>value = [0, 23, 0]<br/>class = Cloudy>, fillcolor="#39e581ff"] ;
16 -> 46 ;
47 [label=<Humidity &le; -0.158<br/>entropy = 1.084<br/>samples = 143<br/>value = [63, 78, 2]<br/>class = Cloudy>, fillcolor="#39e58130"] ;
15 -> 47 ;
48 [label=<entropy = 0.0<br/>samples = 2<br/>value = [0, 0, 2]<br/>class = Precipitation>, fillcolor="#8139e5ff"] ;
47 -> 48 ;
49 [label=<Visibilty &le; -1.024<br/>entropy = 0.992<br/>samples = 141<br/>value = [63, 78, 0]<br/>class = Cloudy>, fillcolor="#39e58131"] ;
47 -> 49 ;
50 [label=<Longitude &le; 1.467<br/>entropy = 0.934<br/>samples = 100<br/>value = [35, 65, 0]<br/>class = Cloudy>, fillcolor="#39e58176"] ;
49 -> 50 ;
51 [label=<Longitude &le; 1.389<br/>entropy = 0.967<br/>samples = 89<br/>value = [35, 54, 0]<br/>class = Cloudy>, fillcolor="#39e5815a"] ;
50 -> 51 ;
52 [label=<Latitude &le; -0.152<br/>entropy = 0.947<br/>samples = 85<br/>value = [31, 54, 0]<br/>class = Cloudy>, fillcolor="#39e5816d"] ;
51 -> 52 ;
53 [label=<Humidity &le; 0.91<br/>entropy = 0.922<br/>samples = 80<br/>value = [27, 53, 0]<br/>class = Cloudy>, fillcolor="#39e5817d"] ;
52 -> 53 ;
54 [label=<Visibilty &le; -1.23<br/>entropy = 0.985<br/>samples = 14<br/>value = [8, 6, 0]<br/>class = Clear>, fillcolor="#e5813940"] ;
53 -> 54 ;
55 [label=<Humidity &le; 0.768<br/>entropy = 0.764<br/>samples = 9<br/>value = [7, 2, 0]<br/>class = Clear>, fillcolor="#e58139b6"] ;
54 -> 55 ;
56 [label=<Latitude &le; -0.581<br/>entropy = 1.0<br/>samples = 4<br/>value = [2, 2, 0]<br/>class = Clear>, fillcolor="#e5813900"] ;
55 -> 56 ;
57 [label=<entropy = 0.0<br/>samples = 2<br/>value = [2, 0, 0]<br/>class = Clear>, fillcolor="#e58139ff"] ;
56 -> 57 ;
58 [label=<entropy = 0.0<br/>samples = 2<br/>value = [0, 2, 0]<br/>class = Cloudy>, fillcolor="#39e581ff"] ;
56 -> 58 ;
59 [label=<entropy = 0.0<br/>samples = 5<br/>value = [5, 0, 0]<br/>class = Clear>, fillcolor="#e58139ff"] ;
55 -> 59 ;
60 [label=<Wind Direction &le; 0.285<br/>entropy = 0.722<br/>samples = 5<br/>value = [1, 4, 0]<br/>class = Cloudy>, fillcolor="#39e581bf"] ;
54 -> 60 ;
61 [label=<entropy = 0.0<br/>samples = 1<br/>value = [1, 0, 0]<br/>class = Clear>, fillcolor="#e58139ff"] ;
60 -> 61 ;
62 [label=<entropy = 0.0<br/>samples = 4<br/>value = [0, 4, 0]<br/>class = Cloudy>, fillcolor="#39e581ff"] ;
60 -> 62 ;
63 [label=<Latitude &le; -0.357<br/>entropy = 0.866<br/>samples = 66<br/>value = [19, 47, 0]<br/>class = Cloudy>, fillcolor="#39e58198"] ;
53 -> 63 ;
64 [label=<Longitude &le; -0.413<br/>entropy = 0.907<br/>samples = 59<br/>value = [19, 40, 0]<br/>class = Cloudy>, fillcolor="#39e58186"] ;
63 -> 64 ;
65 [label=<entropy = 0.0<br/>samples = 6<br/>value = [0, 6, 0]<br/>class = Cloudy>, fillcolor="#39e581ff"] ;
64 -> 65 ;
66 [label=<Longitude &le; 1.228<br/>entropy = 0.941<br/>samples = 53<br/>value = [19, 34, 0]<br/>class = Cloudy>, fillcolor="#39e58170"] ;
64 -> 66 ;
67 [label=<Visibilty &le; -1.23<br/>entropy = 0.918<br/>samples = 51<br/>value = [17, 34, 0]<br/>class = Cloudy>, fillcolor="#39e5817f"] ;
66 -> 67 ;
68 [label=<Wind Direction &le; 1.197<br/>entropy = 0.799<br/>samples = 33<br/>value = [8, 25, 0]<br/>class = Cloudy>, fillcolor="#39e581ad"] ;
67 -> 68 ;
69 [label=<Longitude &le; 0.059<br/>entropy = 0.904<br/>samples = 25<br/>value = [8, 17, 0]<br/>class = Cloudy>, fillcolor="#39e58187"] ;
68 -> 69 ;
70 [label=<entropy = 0.0<br/>samples = 3<br/>value = [3, 0, 0]<br/>class = Clear>, fillcolor="#e58139ff"] ;
69 -> 70 ;
71 [label=<Temperature &le; -1.001<br/>entropy = 0.773<br/>samples = 22<br/>value = [5, 17, 0]<br/>class = Cloudy>, fillcolor="#39e581b4"] ;
69 -> 71 ;
72 [label=<Visibilty &le; -1.555<br/>entropy = 0.94<br/>samples = 14<br/>value = [5, 9, 0]<br/>class = Cloudy>, fillcolor="#39e58171"] ;
71 -> 72 ;
73 [label=<entropy = 0.0<br/>samples = 2<br/>value = [2, 0, 0]<br/>class = Clear>, fillcolor="#e58139ff"] ;
72 -> 73 ;
74 [label=<Dew Point &le; -0.794<br/>entropy = 0.811<br/>samples = 12<br/>value = [3, 9, 0]<br/>class = Cloudy>, fillcolor="#39e581aa"] ;
72 -> 74 ;
75 [label=<entropy = 0.0<br/>samples = 7<br/>value = [0, 7, 0]<br/>class = Cloudy>, fillcolor="#39e581ff"] ;
74 -> 75 ;
76 [label=<Latitude &le; -0.982<br/>entropy = 0.971<br/>samples = 5<br/>value = [3, 2, 0]<br/>class = Clear>, fillcolor="#e5813955"] ;
74 -> 76 ;
77 [label=<entropy = 0.0<br/>samples = 2<br/>value = [0, 2, 0]<br/>class = Cloudy>, fillcolor="#39e581ff"] ;
76 -> 77 ;
78 [label=<entropy = 0.0<br/>samples = 3<br/>value = [3, 0, 0]<br/>class = Clear>, fillcolor="#e58139ff"] ;
76 -> 78 ;
79 [label=<entropy = 0.0<br/>samples = 8<br/>value = [0, 8, 0]<br/>class = Cloudy>, fillcolor="#39e581ff"] ;
71 -> 79 ;
80 [label=<entropy = 0.0<br/>samples = 8<br/>value = [0, 8, 0]<br/>class = Cloudy>, fillcolor="#39e581ff"] ;
68 -> 80 ;
81 [label=<Pressure &le; -0.429<br/>entropy = 1.0<br/>samples = 18<br/>value = [9, 9, 0]<br/>class = Clear>, fillcolor="#e5813900"] ;
67 -> 81 ;
82 [label=<Temperature &le; -2.184<br/>entropy = 0.544<br/>samples = 8<br/>value = [1, 7, 0]<br/>class = Cloudy>, fillcolor="#39e581db"] ;
81 -> 82 ;
83 [label=<entropy = 0.0<br/>samples = 1<br/>value = [1, 0, 0]<br/>class = Clear>, fillcolor="#e58139ff"] ;
82 -> 83 ;
84 [label=<entropy = 0.0<br/>samples = 7<br/>value = [0, 7, 0]<br/>class = Cloudy>, fillcolor="#39e581ff"] ;
82 -> 84 ;
85 [label=<Humidity &le; 0.946<br/>entropy = 0.722<br/>samples = 10<br/>value = [8, 2, 0]<br/>class = Clear>, fillcolor="#e58139bf"] ;
81 -> 85 ;
86 [label=<entropy = 0.0<br/>samples = 1<br/>value = [0, 1, 0]<br/>class = Cloudy>, fillcolor="#39e581ff"] ;
85 -> 86 ;
87 [label=<Latitude &le; -1.079<br/>entropy = 0.503<br/>samples = 9<br/>value = [8, 1, 0]<br/>class = Clear>, fillcolor="#e58139df"] ;
85 -> 87 ;
88 [label=<Humidity &le; 1.109<br/>entropy = 1.0<br/>samples = 2<br/>value = [1, 1, 0]<br/>class = Clear>, fillcolor="#e5813900"] ;
87 -> 88 ;
89 [label=<entropy = 0.0<br/>samples = 1<br/>value = [1, 0, 0]<br/>class = Clear>, fillcolor="#e58139ff"] ;
88 -> 89 ;
90 [label=<entropy = 0.0<br/>samples = 1<br/>value = [0, 1, 0]<br/>class = Cloudy>, fillcolor="#39e581ff"] ;
88 -> 90 ;
91 [label=<entropy = 0.0<br/>samples = 7<br/>value = [7, 0, 0]<br/>class = Clear>, fillcolor="#e58139ff"] ;
87 -> 91 ;
92 [label=<entropy = 0.0<br/>samples = 2<br/>value = [2, 0, 0]<br/>class = Clear>, fillcolor="#e58139ff"] ;
66 -> 92 ;
93 [label=<entropy = 0.0<br/>samples = 7<br/>value = [0, 7, 0]<br/>class = Cloudy>, fillcolor="#39e581ff"] ;
63 -> 93 ;
94 [label=<Longitude &le; 0.907<br/>entropy = 0.722<br/>samples = 5<br/>value = [4, 1, 0]<br/>class = Clear>, fillcolor="#e58139bf"] ;
52 -> 94 ;
95 [label=<entropy = 0.0<br/>samples = 1<br/>value = [0, 1, 0]<br/>class = Cloudy>, fillcolor="#39e581ff"] ;
94 -> 95 ;
96 [label=<entropy = 0.0<br/>samples = 4<br/>value = [4, 0, 0]<br/>class = Clear>, fillcolor="#e58139ff"] ;
94 -> 96 ;
97 [label=<entropy = 0.0<br/>samples = 4<br/>value = [4, 0, 0]<br/>class = Clear>, fillcolor="#e58139ff"] ;
51 -> 97 ;
98 [label=<entropy = 0.0<br/>samples = 11<br/>value = [0, 11, 0]<br/>class = Cloudy>, fillcolor="#39e581ff"] ;
50 -> 98 ;
99 [label=<Longitude &le; 0.529<br/>entropy = 0.901<br/>samples = 41<br/>value = [28, 13, 0]<br/>class = Clear>, fillcolor="#e5813989"] ;
49 -> 99 ;
100 [label=<Temperature &le; -0.79<br/>entropy = 0.918<br/>samples = 12<br/>value = [4, 8, 0]<br/>class = Cloudy>, fillcolor="#39e5817f"] ;
99 -> 100 ;
101 [label=<Humidity &le; 1.063<br/>entropy = 0.985<br/>samples = 7<br/>value = [4, 3, 0]<br/>class = Clear>, fillcolor="#e5813940"] ;
100 -> 101 ;
102 [label=<entropy = 0.0<br/>samples = 2<br/>value = [2, 0, 0]<br/>class = Clear>, fillcolor="#e58139ff"] ;
101 -> 102 ;
103 [label=<Humidity &le; 1.119<br/>entropy = 0.971<br/>samples = 5<br/>value = [2, 3, 0]<br/>class = Cloudy>, fillcolor="#39e58155"] ;
101 -> 103 ;
104 [label=<entropy = 0.0<br/>samples = 2<br/>value = [0, 2, 0]<br/>class = Cloudy>, fillcolor="#39e581ff"] ;
103 -> 104 ;
105 [label=<Humidity &le; 1.205<br/>entropy = 0.918<br/>samples = 3<br/>value = [2, 1, 0]<br/>class = Clear>, fillcolor="#e581397f"] ;
103 -> 105 ;
106 [label=<entropy = 0.0<br/>samples = 2<br/>value = [2, 0, 0]<br/>class = Clear>, fillcolor="#e58139ff"] ;
105 -> 106 ;
107 [label=<entropy = 0.0<br/>samples = 1<br/>value = [0, 1, 0]<br/>class = Cloudy>, fillcolor="#39e581ff"] ;
105 -> 107 ;
108 [label=<entropy = 0.0<br/>samples = 5<br/>value = [0, 5, 0]<br/>class = Cloudy>, fillcolor="#39e581ff"] ;
100 -> 108 ;
109 [label=<Latitude &le; -0.819<br/>entropy = 0.663<br/>samples = 29<br/>value = [24, 5, 0]<br/>class = Clear>, fillcolor="#e58139ca"] ;
99 -> 109 ;
110 [label=<Wind Direction &le; 0.589<br/>entropy = 0.991<br/>samples = 9<br/>value = [5, 4, 0]<br/>class = Clear>, fillcolor="#e5813933"] ;
109 -> 110 ;
111 [label=<entropy = 0.0<br/>samples = 3<br/>value = [0, 3, 0]<br/>class = Cloudy>, fillcolor="#39e581ff"] ;
110 -> 111 ;
112 [label=<Visibilty &le; -0.716<br/>entropy = 0.65<br/>samples = 6<br/>value = [5, 1, 0]<br/>class = Clear>, fillcolor="#e58139cc"] ;
110 -> 112 ;
113 [label=<entropy = 0.0<br/>samples = 5<br/>value = [5, 0, 0]<br/>class = Clear>, fillcolor="#e58139ff"] ;
112 -> 113 ;
114 [label=<entropy = 0.0<br/>samples = 1<br/>value = [0, 1, 0]<br/>class = Cloudy>, fillcolor="#39e581ff"] ;
112 -> 114 ;
115 [label=<Humidity &le; 0.356<br/>entropy = 0.286<br/>samples = 20<br/>value = [19, 1, 0]<br/>class = Clear>, fillcolor="#e58139f2"] ;
109 -> 115 ;
116 [label=<Visibilty &le; -0.785<br/>entropy = 1.0<br/>samples = 2<br/>value = [1, 1, 0]<br/>class = Clear>, fillcolor="#e5813900"] ;
115 -> 116 ;
117 [label=<entropy = 0.0<br/>samples = 1<br/>value = [1, 0, 0]<br/>class = Clear>, fillcolor="#e58139ff"] ;
116 -> 117 ;
118 [label=<entropy = 0.0<br/>samples = 1<br/>value = [0, 1, 0]<br/>class = Cloudy>, fillcolor="#39e581ff"] ;
116 -> 118 ;
119 [label=<entropy = 0.0<br/>samples = 18<br/>value = [18, 0, 0]<br/>class = Clear>, fillcolor="#e58139ff"] ;
115 -> 119 ;
120 [label=<Wind Direction &le; 0.589<br/>entropy = 1.239<br/>samples = 341<br/>value = [46, 228, 67]<br/>class = Cloudy>, fillcolor="#39e58196"] ;
4 -> 120 ;
121 [label=<Longitude &le; 0.46<br/>entropy = 1.047<br/>samples = 207<br/>value = [37, 154, 16]<br/>class = Cloudy>, fillcolor="#39e581b0"] ;
120 -> 121 ;
122 [label=<Pressure &le; -0.662<br/>entropy = 1.317<br/>samples = 70<br/>value = [11, 44, 15]<br/>class = Cloudy>, fillcolor="#39e58186"] ;
121 -> 122 ;
123 [label=<Latitude &le; -0.747<br/>entropy = 1.359<br/>samples = 31<br/>value = [3, 13, 15]<br/>class = Precipitation>, fillcolor="#8139e51c"] ;
122 -> 123 ;
124 [label=<Dew Point &le; -0.767<br/>entropy = 1.449<br/>samples = 7<br/>value = [3, 3, 1]<br/>class = Clear>, fillcolor="#e5813900"] ;
123 -> 124 ;
125 [label=<Temperature &le; -1.339<br/>entropy = 0.811<br/>samples = 4<br/>value = [3, 0, 1]<br/>class = Clear>, fillcolor="#e58139aa"] ;
124 -> 125 ;
126 [label=<entropy = 0.0<br/>samples = 1<br/>value = [0, 0, 1]<br/>class = Precipitation>, fillcolor="#8139e5ff"] ;
125 -> 126 ;
127 [label=<entropy = 0.0<br/>samples = 3<br/>value = [3, 0, 0]<br/>class = Clear>, fillcolor="#e58139ff"] ;
125 -> 127 ;
128 [label=<entropy = 0.0<br/>samples = 3<br/>value = [0, 3, 0]<br/>class = Cloudy>, fillcolor="#39e581ff"] ;
124 -> 128 ;
129 [label=<Dew Point &le; -1.229<br/>entropy = 0.98<br/>samples = 24<br/>value = [0, 10, 14]<br/>class = Precipitation>, fillcolor="#8139e549"] ;
123 -> 129 ;
130 [label=<Longitude &le; -0.245<br/>entropy = 0.863<br/>samples = 7<br/>value = [0, 5, 2]<br/>class = Cloudy>, fillcolor="#39e58199"] ;
129 -> 130 ;
131 [label=<Pressure &le; -0.954<br/>entropy = 0.918<br/>samples = 3<br/>value = [0, 1, 2]<br/>class = Precipitation>, fillcolor="#8139e57f"] ;
130 -> 131 ;
132 [label=<entropy = 0.0<br/>samples = 2<br/>value = [0, 0, 2]<br/>class = Precipitation>, fillcolor="#8139e5ff"] ;
131 -> 132 ;
133 [label=<entropy = 0.0<br/>samples = 1<br/>value = [0, 1, 0]<br/>class = Cloudy>, fillcolor="#39e581ff"] ;
131 -> 133 ;
134 [label=<entropy = 0.0<br/>samples = 4<br/>value = [0, 4, 0]<br/>class = Cloudy>, fillcolor="#39e581ff"] ;
130 -> 134 ;
135 [label=<Humidity &le; -0.01<br/>entropy = 0.874<br/>samples = 17<br/>value = [0, 5, 12]<br/>class = Precipitation>, fillcolor="#8139e595"] ;
129 -> 135 ;
136 [label=<entropy = 0.0<br/>samples = 5<br/>value = [0, 0, 5]<br/>class = Precipitation>, fillcolor="#8139e5ff"] ;
135 -> 136 ;
137 [label=<Humidity &le; 0.763<br/>entropy = 0.98<br/>samples = 12<br/>value = [0, 5, 7]<br/>class = Precipitation>, fillcolor="#8139e549"] ;
135 -> 137 ;
138 [label=<Longitude &le; 0.169<br/>entropy = 0.863<br/>samples = 7<br/>value = [0, 5, 2]<br/>class = Cloudy>, fillcolor="#39e58199"] ;
137 -> 138 ;
139 [label=<entropy = 0.0<br/>samples = 4<br/>value = [0, 4, 0]<br/>class = Cloudy>, fillcolor="#39e581ff"] ;
138 -> 139 ;
140 [label=<Wind Direction &le; -0.171<br/>entropy = 0.918<br/>samples = 3<br/>value = [0, 1, 2]<br/>class = Precipitation>, fillcolor="#8139e57f"] ;
138 -> 140 ;
141 [label=<entropy = 0.0<br/>samples = 1<br/>value = [0, 0, 1]<br/>class = Precipitation>, fillcolor="#8139e5ff"] ;
140 -> 141 ;
142 [label=<Temperature &le; -0.916<br/>entropy = 1.0<br/>samples = 2<br/>value = [0, 1, 1]<br/>class = Cloudy>, fillcolor="#39e58100"] ;
140 -> 142 ;
143 [label=<entropy = 0.0<br/>samples = 1<br/>value = [0, 1, 0]<br/>class = Cloudy>, fillcolor="#39e581ff"] ;
142 -> 143 ;
144 [label=<entropy = 0.0<br/>samples = 1<br/>value = [0, 0, 1]<br/>class = Precipitation>, fillcolor="#8139e5ff"] ;
142 -> 144 ;
145 [label=<entropy = 0.0<br/>samples = 5<br/>value = [0, 0, 5]<br/>class = Precipitation>, fillcolor="#8139e5ff"] ;
137 -> 145 ;
146 [label=<Longitude &le; -0.037<br/>entropy = 0.732<br/>samples = 39<br/>value = [8, 31, 0]<br/>class = Cloudy>, fillcolor="#39e581bd"] ;
122 -> 146 ;
147 [label=<Humidity &le; 1.281<br/>entropy = 0.89<br/>samples = 26<br/>value = [8, 18, 0]<br/>class = Cloudy>, fillcolor="#39e5818e"] ;
146 -> 147 ;
148 [label=<Humidity &le; 0.931<br/>entropy = 0.989<br/>samples = 16<br/>value = [7, 9, 0]<br/>class = Cloudy>, fillcolor="#39e58139"] ;
147 -> 148 ;
149 [label=<Dew Point &le; -0.291<br/>entropy = 0.722<br/>samples = 10<br/>value = [2, 8, 0]<br/>class = Cloudy>, fillcolor="#39e581bf"] ;
148 -> 149 ;
150 [label=<entropy = 0.0<br/>samples = 7<br/>value = [0, 7, 0]<br/>class = Cloudy>, fillcolor="#39e581ff"] ;
149 -> 150 ;
151 [label=<Wind Direction &le; -1.996<br/>entropy = 0.918<br/>samples = 3<br/>value = [2, 1, 0]<br/>class = Clear>, fillcolor="#e581397f"] ;
149 -> 151 ;
152 [label=<entropy = 0.0<br/>samples = 2<br/>value = [2, 0, 0]<br/>class = Clear>, fillcolor="#e58139ff"] ;
151 -> 152 ;
153 [label=<entropy = 0.0<br/>samples = 1<br/>value = [0, 1, 0]<br/>class = Cloudy>, fillcolor="#39e581ff"] ;
151 -> 153 ;
154 [label=<Pressure &le; -0.312<br/>entropy = 0.65<br/>samples = 6<br/>value = [5, 1, 0]<br/>class = Clear>, fillcolor="#e58139cc"] ;
148 -> 154 ;
155 [label=<entropy = 0.0<br/>samples = 1<br/>value = [0, 1, 0]<br/>class = Cloudy>, fillcolor="#39e581ff"] ;
154 -> 155 ;
156 [label=<entropy = 0.0<br/>samples = 5<br/>value = [5, 0, 0]<br/>class = Clear>, fillcolor="#e58139ff"] ;
154 -> 156 ;
157 [label=<Visibilty &le; -1.195<br/>entropy = 0.469<br/>samples = 10<br/>value = [1, 9, 0]<br/>class = Cloudy>, fillcolor="#39e581e3"] ;
147 -> 157 ;
158 [label=<entropy = 0.0<br/>samples = 7<br/>value = [0, 7, 0]<br/>class = Cloudy>, fillcolor="#39e581ff"] ;
157 -> 158 ;
159 [label=<Dew Point &le; -0.576<br/>entropy = 0.918<br/>samples = 3<br/>value = [1, 2, 0]<br/>class = Cloudy>, fillcolor="#39e5817f"] ;
157 -> 159 ;
160 [label=<entropy = 0.0<br/>samples = 1<br/>value = [1, 0, 0]<br/>class = Clear>, fillcolor="#e58139ff"] ;
159 -> 160 ;
161 [label=<entropy = 0.0<br/>samples = 2<br/>value = [0, 2, 0]<br/>class = Cloudy>, fillcolor="#39e581ff"] ;
159 -> 161 ;
162 [label=<entropy = 0.0<br/>samples = 13<br/>value = [0, 13, 0]<br/>class = Cloudy>, fillcolor="#39e581ff"] ;
146 -> 162 ;
163 [label=<Pressure &le; -0.546<br/>entropy = 0.761<br/>samples = 137<br/>value = [26, 110, 1]<br/>class = Cloudy>, fillcolor="#39e581c1"] ;
121 -> 163 ;
164 [label=<Temperature &le; -1.677<br/>entropy = 0.894<br/>samples = 102<br/>value = [26, 75, 1]<br/>class = Cloudy>, fillcolor="#39e581a4"] ;
163 -> 164 ;
165 [label=<Humidity &le; 0.585<br/>entropy = 0.811<br/>samples = 12<br/>value = [9, 3, 0]<br/>class = Clear>, fillcolor="#e58139aa"] ;
164 -> 165 ;
166 [label=<Humidity &le; 0.478<br/>entropy = 1.0<br/>samples = 6<br/>value = [3, 3, 0]<br/>class = Clear>, fillcolor="#e5813900"] ;
165 -> 166 ;
167 [label=<entropy = 0.0<br/>samples = 3<br/>value = [3, 0, 0]<br/>class = Clear>, fillcolor="#e58139ff"] ;
166 -> 167 ;
168 [label=<entropy = 0.0<br/>samples = 3<br/>value = [0, 3, 0]<br/>class = Cloudy>, fillcolor="#39e581ff"] ;
166 -> 168 ;
169 [label=<entropy = 0.0<br/>samples = 6<br/>value = [6, 0, 0]<br/>class = Clear>, fillcolor="#e58139ff"] ;
165 -> 169 ;
170 [label=<Longitude &le; 1.114<br/>entropy = 0.784<br/>samples = 90<br/>value = [17, 72, 1]<br/>class = Cloudy>, fillcolor="#39e581c0"] ;
164 -> 170 ;
171 [label=<Longitude &le; 0.613<br/>entropy = 0.848<br/>samples = 51<br/>value = [14, 37, 0]<br/>class = Cloudy>, fillcolor="#39e5819f"] ;
170 -> 171 ;
172 [label=<entropy = 0.0<br/>samples = 7<br/>value = [0, 7, 0]<br/>class = Cloudy>, fillcolor="#39e581ff"] ;
171 -> 172 ;
173 [label=<Longitude &le; 0.736<br/>entropy = 0.902<br/>samples = 44<br/>value = [14, 30, 0]<br/>class = Cloudy>, fillcolor="#39e58188"] ;
171 -> 173 ;
174 [label=<entropy = 0.0<br/>samples = 2<br/>value = [2, 0, 0]<br/>class = Clear>, fillcolor="#e58139ff"] ;
173 -> 174 ;
175 [label=<Humidity &le; 0.173<br/>entropy = 0.863<br/>samples = 42<br/>value = [12, 30, 0]<br/>class = Cloudy>, fillcolor="#39e58199"] ;
173 -> 175 ;
176 [label=<Dew Point &le; -1.093<br/>entropy = 0.592<br/>samples = 21<br/>value = [3, 18, 0]<br/>class = Cloudy>, fillcolor="#39e581d4"] ;
175 -> 176 ;
177 [label=<entropy = 0.0<br/>samples = 11<br/>value = [0, 11, 0]<br/>class = Cloudy>, fillcolor="#39e581ff"] ;
176 -> 177 ;
178 [label=<Visibilty &le; -0.99<br/>entropy = 0.881<br/>samples = 10<br/>value = [3, 7, 0]<br/>class = Cloudy>, fillcolor="#39e58192"] ;
176 -> 178 ;
179 [label=<Latitude &le; -0.209<br/>entropy = 1.0<br/>samples = 6<br/>value = [3, 3, 0]<br/>class = Clear>, fillcolor="#e5813900"] ;
178 -> 179 ;
180 [label=<entropy = 0.0<br/>samples = 3<br/>value = [3, 0, 0]<br/>class = Clear>, fillcolor="#e58139ff"] ;
179 -> 180 ;
181 [label=<entropy = 0.0<br/>samples = 3<br/>value = [0, 3, 0]<br/>class = Cloudy>, fillcolor="#39e581ff"] ;
179 -> 181 ;
182 [label=<entropy = 0.0<br/>samples = 4<br/>value = [0, 4, 0]<br/>class = Cloudy>, fillcolor="#39e581ff"] ;
178 -> 182 ;
183 [label=<Humidity &le; 0.234<br/>entropy = 0.985<br/>samples = 21<br/>value = [9, 12, 0]<br/>class = Cloudy>, fillcolor="#39e58140"] ;
175 -> 183 ;
184 [label=<entropy = 0.0<br/>samples = 4<br/>value = [4, 0, 0]<br/>class = Clear>, fillcolor="#e58139ff"] ;
183 -> 184 ;
185 [label=<Latitude &le; -0.01<br/>entropy = 0.874<br/>samples = 17<br/>value = [5, 12, 0]<br/>class = Cloudy>, fillcolor="#39e58195"] ;
183 -> 185 ;
186 [label=<Pressure &le; -1.012<br/>entropy = 0.722<br/>samples = 15<br/>value = [3, 12, 0]<br/>class = Cloudy>, fillcolor="#39e581bf"] ;
185 -> 186 ;
187 [label=<entropy = 0.0<br/>samples = 11<br/>value = [0, 11, 0]<br/>class = Cloudy>, fillcolor="#39e581ff"] ;
186 -> 187 ;
188 [label=<Dew Point &le; -0.685<br/>entropy = 0.811<br/>samples = 4<br/>value = [3, 1, 0]<br/>class = Clear>, fillcolor="#e58139aa"] ;
186 -> 188 ;
189 [label=<entropy = 0.0<br/>samples = 3<br/>value = [3, 0, 0]<br/>class = Clear>, fillcolor="#e58139ff"] ;
188 -> 189 ;
190 [label=<entropy = 0.0<br/>samples = 1<br/>value = [0, 1, 0]<br/>class = Cloudy>, fillcolor="#39e581ff"] ;
188 -> 190 ;
191 [label=<entropy = 0.0<br/>samples = 2<br/>value = [2, 0, 0]<br/>class = Clear>, fillcolor="#e58139ff"] ;
185 -> 191 ;
192 [label=<Visibilty &le; -0.545<br/>entropy = 0.56<br/>samples = 39<br/>value = [3, 35, 1]<br/>class = Cloudy>, fillcolor="#39e581e3"] ;
170 -> 192 ;
193 [label=<Longitude &le; 1.838<br/>entropy = 0.373<br/>samples = 35<br/>value = [1, 33, 1]<br/>class = Cloudy>, fillcolor="#39e581f0"] ;
192 -> 193 ;
194 [label=<Visibilty &le; -1.23<br/>entropy = 0.201<br/>samples = 32<br/>value = [0, 31, 1]<br/>class = Cloudy>, fillcolor="#39e581f7"] ;
193 -> 194 ;
195 [label=<Temperature &le; -1.226<br/>entropy = 0.722<br/>samples = 5<br/>value = [0, 4, 1]<br/>class = Cloudy>, fillcolor="#39e581bf"] ;
194 -> 195 ;
196 [label=<entropy = 0.0<br/>samples = 3<br/>value = [0, 3, 0]<br/>class = Cloudy>, fillcolor="#39e581ff"] ;
195 -> 196 ;
197 [label=<Wind Direction &le; 0.285<br/>entropy = 1.0<br/>samples = 2<br/>value = [0, 1, 1]<br/>class = Cloudy>, fillcolor="#39e58100"] ;
195 -> 197 ;
198 [label=<entropy = 0.0<br/>samples = 1<br/>value = [0, 0, 1]<br/>class = Precipitation>, fillcolor="#8139e5ff"] ;
197 -> 198 ;
199 [label=<entropy = 0.0<br/>samples = 1<br/>value = [0, 1, 0]<br/>class = Cloudy>, fillcolor="#39e581ff"] ;
197 -> 199 ;
200 [label=<entropy = 0.0<br/>samples = 27<br/>value = [0, 27, 0]<br/>class = Cloudy>, fillcolor="#39e581ff"] ;
194 -> 200 ;
201 [label=<Dew Point &le; -0.998<br/>entropy = 0.918<br/>samples = 3<br/>value = [1, 2, 0]<br/>class = Cloudy>, fillcolor="#39e5817f"] ;
193 -> 201 ;
202 [label=<entropy = 0.0<br/>samples = 1<br/>value = [1, 0, 0]<br/>class = Clear>, fillcolor="#e58139ff"] ;
201 -> 202 ;
203 [label=<entropy = 0.0<br/>samples = 2<br/>value = [0, 2, 0]<br/>class = Cloudy>, fillcolor="#39e581ff"] ;
201 -> 203 ;
204 [label=<Longitude &le; 1.308<br/>entropy = 1.0<br/>samples = 4<br/>value = [2, 2, 0]<br/>class = Clear>, fillcolor="#e5813900"] ;
192 -> 204 ;
205 [label=<entropy = 0.0<br/>samples = 2<br/>value = [0, 2, 0]<br/>class = Cloudy>, fillcolor="#39e581ff"] ;
204 -> 205 ;
206 [label=<entropy = 0.0<br/>samples = 2<br/>value = [2, 0, 0]<br/>class = Clear>, fillcolor="#e58139ff"] ;
204 -> 206 ;
207 [label=<entropy = 0.0<br/>samples = 35<br/>value = [0, 35, 0]<br/>class = Cloudy>, fillcolor="#39e581ff"] ;
163 -> 207 ;
208 [label=<Latitude &le; -0.77<br/>entropy = 1.265<br/>samples = 134<br/>value = [9, 74, 51]<br/>class = Cloudy>, fillcolor="#39e58147"] ;
120 -> 208 ;
209 [label=<Humidity &le; 0.631<br/>entropy = 1.227<br/>samples = 73<br/>value = [9, 49, 15]<br/>class = Cloudy>, fillcolor="#39e58195"] ;
208 -> 209 ;
210 [label=<Humidity &le; -1.444<br/>entropy = 1.166<br/>samples = 42<br/>value = [2, 26, 14]<br/>class = Cloudy>, fillcolor="#39e5816d"] ;
209 -> 210 ;
211 [label=<Pressure &le; -1.42<br/>entropy = 0.591<br/>samples = 19<br/>value = [1, 17, 1]<br/>class = Cloudy>, fillcolor="#39e581e3"] ;
210 -> 211 ;
212 [label=<entropy = 0.0<br/>samples = 1<br/>value = [0, 0, 1]<br/>class = Precipitation>, fillcolor="#8139e5ff"] ;
211 -> 212 ;
213 [label=<Latitude &le; -1.365<br/>entropy = 0.31<br/>samples = 18<br/>value = [1, 17, 0]<br/>class = Cloudy>, fillcolor="#39e581f0"] ;
211 -> 213 ;
214 [label=<entropy = 0.0<br/>samples = 13<br/>value = [0, 13, 0]<br/>class = Cloudy>, fillcolor="#39e581ff"] ;
213 -> 214 ;
215 [label=<Temperature &le; 0.238<br/>entropy = 0.722<br/>samples = 5<br/>value = [1, 4, 0]<br/>class = Cloudy>, fillcolor="#39e581bf"] ;
213 -> 215 ;
216 [label=<Wind Direction &le; 1.197<br/>entropy = 1.0<br/>samples = 2<br/>value = [1, 1, 0]<br/>class = Clear>, fillcolor="#e5813900"] ;
215 -> 216 ;
217 [label=<entropy = 0.0<br/>samples = 1<br/>value = [1, 0, 0]<br/>class = Clear>, fillcolor="#e58139ff"] ;
216 -> 217 ;
218 [label=<entropy = 0.0<br/>samples = 1<br/>value = [0, 1, 0]<br/>class = Cloudy>, fillcolor="#39e581ff"] ;
216 -> 218 ;
219 [label=<entropy = 0.0<br/>samples = 3<br/>value = [0, 3, 0]<br/>class = Cloudy>, fillcolor="#39e581ff"] ;
215 -> 219 ;
220 [label=<Wind Direction &le; 1.197<br/>entropy = 1.192<br/>samples = 23<br/>value = [1, 9, 13]<br/>class = Precipitation>, fillcolor="#8139e549"] ;
210 -> 220 ;
221 [label=<Visibilty &le; -0.75<br/>entropy = 1.248<br/>samples = 16<br/>value = [1, 9, 6]<br/>class = Cloudy>, fillcolor="#39e5814c"] ;
220 -> 221 ;
222 [label=<Longitude &le; 0.253<br/>entropy = 0.994<br/>samples = 11<br/>value = [0, 5, 6]<br/>class = Precipitation>, fillcolor="#8139e52a"] ;
221 -> 222 ;
223 [label=<entropy = 0.0<br/>samples = 5<br/>value = [0, 0, 5]<br/>class = Precipitation>, fillcolor="#8139e5ff"] ;
222 -> 223 ;
224 [label=<Longitude &le; 1.389<br/>entropy = 0.65<br/>samples = 6<br/>value = [0, 5, 1]<br/>class = Cloudy>, fillcolor="#39e581cc"] ;
222 -> 224 ;
225 [label=<entropy = 0.0<br/>samples = 4<br/>value = [0, 4, 0]<br/>class = Cloudy>, fillcolor="#39e581ff"] ;
224 -> 225 ;
226 [label=<Humidity &le; 0.015<br/>entropy = 1.0<br/>samples = 2<br/>value = [0, 1, 1]<br/>class = Cloudy>, fillcolor="#39e58100"] ;
224 -> 226 ;
227 [label=<entropy = 0.0<br/>samples = 1<br/>value = [0, 1, 0]<br/>class = Cloudy>, fillcolor="#39e581ff"] ;
226 -> 227 ;
228 [label=<entropy = 0.0<br/>samples = 1<br/>value = [0, 0, 1]<br/>class = Precipitation>, fillcolor="#8139e5ff"] ;
226 -> 228 ;
229 [label=<Temperature &le; -0.86<br/>entropy = 0.722<br/>samples = 5<br/>value = [1, 4, 0]<br/>class = Cloudy>, fillcolor="#39e581bf"] ;
221 -> 229 ;
230 [label=<entropy = 0.0<br/>samples = 1<br/>value = [1, 0, 0]<br/>class = Clear>, fillcolor="#e58139ff"] ;
229 -> 230 ;
231 [label=<entropy = 0.0<br/>samples = 4<br/>value = [0, 4, 0]<br/>class = Cloudy>, fillcolor="#39e581ff"] ;
229 -> 231 ;
232 [label=<entropy = 0.0<br/>samples = 7<br/>value = [0, 0, 7]<br/>class = Precipitation>, fillcolor="#8139e5ff"] ;
220 -> 232 ;
233 [label=<Visibilty &le; -1.161<br/>entropy = 0.964<br/>samples = 31<br/>value = [7, 23, 1]<br/>class = Cloudy>, fillcolor="#39e581aa"] ;
209 -> 233 ;
234 [label=<Latitude &le; -1.123<br/>entropy = 0.744<br/>samples = 26<br/>value = [3, 22, 1]<br/>class = Cloudy>, fillcolor="#39e581d3"] ;
233 -> 234 ;
235 [label=<Humidity &le; 1.348<br/>entropy = 0.881<br/>samples = 10<br/>value = [3, 7, 0]<br/>class = Cloudy>, fillcolor="#39e58192"] ;
234 -> 235 ;
236 [label=<Temperature &le; -1.367<br/>entropy = 0.544<br/>samples = 8<br/>value = [1, 7, 0]<br/>class = Cloudy>, fillcolor="#39e581db"] ;
235 -> 236 ;
237 [label=<Dew Point &le; -1.161<br/>entropy = 0.918<br/>samples = 3<br/>value = [1, 2, 0]<br/>class = Cloudy>, fillcolor="#39e5817f"] ;
236 -> 237 ;
238 [label=<entropy = 0.0<br/>samples = 2<br/>value = [0, 2, 0]<br/>class = Cloudy>, fillcolor="#39e581ff"] ;
237 -> 238 ;
239 [label=<entropy = 0.0<br/>samples = 1<br/>value = [1, 0, 0]<br/>class = Clear>, fillcolor="#e58139ff"] ;
237 -> 239 ;
240 [label=<entropy = 0.0<br/>samples = 5<br/>value = [0, 5, 0]<br/>class = Cloudy>, fillcolor="#39e581ff"] ;
236 -> 240 ;
241 [label=<entropy = 0.0<br/>samples = 2<br/>value = [2, 0, 0]<br/>class = Clear>, fillcolor="#e58139ff"] ;
235 -> 241 ;
242 [label=<Temperature &le; -0.888<br/>entropy = 0.337<br/>samples = 16<br/>value = [0, 15, 1]<br/>class = Cloudy>, fillcolor="#39e581ee"] ;
234 -> 242 ;
243 [label=<entropy = 0.0<br/>samples = 14<br/>value = [0, 14, 0]<br/>class = Cloudy>, fillcolor="#39e581ff"] ;
242 -> 243 ;
244 [label=<Temperature &le; -0.747<br/>entropy = 1.0<br/>samples = 2<br/>value = [0, 1, 1]<br/>class = Cloudy>, fillcolor="#39e58100"] ;
242 -> 244 ;
245 [label=<entropy = 0.0<br/>samples = 1<br/>value = [0, 0, 1]<br/>class = Precipitation>, fillcolor="#8139e5ff"] ;
244 -> 245 ;
246 [label=<entropy = 0.0<br/>samples = 1<br/>value = [0, 1, 0]<br/>class = Cloudy>, fillcolor="#39e581ff"] ;
244 -> 246 ;
247 [label=<Longitude &le; -0.239<br/>entropy = 0.722<br/>samples = 5<br/>value = [4, 1, 0]<br/>class = Clear>, fillcolor="#e58139bf"] ;
233 -> 247 ;
248 [label=<entropy = 0.0<br/>samples = 1<br/>value = [0, 1, 0]<br/>class = Cloudy>, fillcolor="#39e581ff"] ;
247 -> 248 ;
249 [label=<entropy = 0.0<br/>samples = 4<br/>value = [4, 0, 0]<br/>class = Clear>, fillcolor="#e58139ff"] ;
247 -> 249 ;
250 [label=<Dew Point &le; -1.174<br/>entropy = 0.976<br/>samples = 61<br/>value = [0, 25, 36]<br/>class = Precipitation>, fillcolor="#8139e54e"] ;
208 -> 250 ;
251 [label=<entropy = 0.0<br/>samples = 4<br/>value = [0, 4, 0]<br/>class = Cloudy>, fillcolor="#39e581ff"] ;
250 -> 251 ;
252 [label=<Visibilty &le; -0.613<br/>entropy = 0.949<br/>samples = 57<br/>value = [0, 21, 36]<br/>class = Precipitation>, fillcolor="#8139e56a"] ;
250 -> 252 ;
253 [label=<Visibilty &le; -0.819<br/>entropy = 0.854<br/>samples = 43<br/>value = [0, 12, 31]<br/>class = Precipitation>, fillcolor="#8139e59c"] ;
252 -> 253 ;
254 [label=<Visibilty &le; -1.39<br/>entropy = 0.978<br/>samples = 29<br/>value = [0, 12, 17]<br/>class = Precipitation>, fillcolor="#8139e54b"] ;
253 -> 254 ;
255 [label=<entropy = 0.0<br/>samples = 5<br/>value = [0, 0, 5]<br/>class = Precipitation>, fillcolor="#8139e5ff"] ;
254 -> 255 ;
256 [label=<Humidity &le; -0.839<br/>entropy = 1.0<br/>samples = 24<br/>value = [0, 12, 12]<br/>class = Cloudy>, fillcolor="#39e58100"] ;
254 -> 256 ;
257 [label=<entropy = 0.0<br/>samples = 3<br/>value = [0, 3, 0]<br/>class = Cloudy>, fillcolor="#39e581ff"] ;
256 -> 257 ;
258 [label=<Latitude &le; -0.541<br/>entropy = 0.985<br/>samples = 21<br/>value = [0, 9, 12]<br/>class = Precipitation>, fillcolor="#8139e540"] ;
256 -> 258 ;
259 [label=<Pressure &le; -0.546<br/>entropy = 0.65<br/>samples = 6<br/>value = [0, 5, 1]<br/>class = Cloudy>, fillcolor="#39e581cc"] ;
258 -> 259 ;
260 [label=<entropy = 0.0<br/>samples = 1<br/>value = [0, 0, 1]<br/>class = Precipitation>, fillcolor="#8139e5ff"] ;
259 -> 260 ;
261 [label=<entropy = 0.0<br/>samples = 5<br/>value = [0, 5, 0]<br/>class = Cloudy>, fillcolor="#39e581ff"] ;
259 -> 261 ;
262 [label=<Longitude &le; 1.076<br/>entropy = 0.837<br/>samples = 15<br/>value = [0, 4, 11]<br/>class = Precipitation>, fillcolor="#8139e5a2"] ;
258 -> 262 ;
263 [label=<Temperature &le; -1.015<br/>entropy = 0.75<br/>samples = 14<br/>value = [0, 3, 11]<br/>class = Precipitation>, fillcolor="#8139e5b9"] ;
262 -> 263 ;
264 [label=<Latitude &le; -0.227<br/>entropy = 0.918<br/>samples = 3<br/>value = [0, 2, 1]<br/>class = Cloudy>, fillcolor="#39e5817f"] ;
263 -> 264 ;
265 [label=<entropy = 0.0<br/>samples = 2<br/>value = [0, 2, 0]<br/>class = Cloudy>, fillcolor="#39e581ff"] ;
264 -> 265 ;
266 [label=<entropy = 0.0<br/>samples = 1<br/>value = [0, 0, 1]<br/>class = Precipitation>, fillcolor="#8139e5ff"] ;
264 -> 266 ;
267 [label=<Latitude &le; -0.162<br/>entropy = 0.439<br/>samples = 11<br/>value = [0, 1, 10]<br/>class = Precipitation>, fillcolor="#8139e5e6"] ;
263 -> 267 ;
268 [label=<entropy = 0.0<br/>samples = 9<br/>value = [0, 0, 9]<br/>class = Precipitation>, fillcolor="#8139e5ff"] ;
267 -> 268 ;
269 [label=<Temperature &le; -0.578<br/>entropy = 1.0<br/>samples = 2<br/>value = [0, 1, 1]<br/>class = Cloudy>, fillcolor="#39e58100"] ;
267 -> 269 ;
270 [label=<entropy = 0.0<br/>samples = 1<br/>value = [0, 0, 1]<br/>class = Precipitation>, fillcolor="#8139e5ff"] ;
269 -> 270 ;
271 [label=<entropy = 0.0<br/>samples = 1<br/>value = [0, 1, 0]<br/>class = Cloudy>, fillcolor="#39e581ff"] ;
269 -> 271 ;
272 [label=<entropy = 0.0<br/>samples = 1<br/>value = [0, 1, 0]<br/>class = Cloudy>, fillcolor="#39e581ff"] ;
262 -> 272 ;
273 [label=<entropy = 0.0<br/>samples = 14<br/>value = [0, 0, 14]<br/>class = Precipitation>, fillcolor="#8139e5ff"] ;
253 -> 273 ;
274 [label=<Pressure &le; -0.312<br/>entropy = 0.94<br/>samples = 14<br/>value = [0, 9, 5]<br/>class = Cloudy>, fillcolor="#39e58171"] ;
252 -> 274 ;
275 [label=<Pressure &le; -0.429<br/>entropy = 0.991<br/>samples = 9<br/>value = [0, 4, 5]<br/>class = Precipitation>, fillcolor="#8139e533"] ;
274 -> 275 ;
276 [label=<Longitude &le; 1.176<br/>entropy = 0.722<br/>samples = 5<br/>value = [0, 4, 1]<br/>class = Cloudy>, fillcolor="#39e581bf"] ;
275 -> 276 ;
277 [label=<entropy = 0.0<br/>samples = 4<br/>value = [0, 4, 0]<br/>class = Cloudy>, fillcolor="#39e581ff"] ;
276 -> 277 ;
278 [label=<entropy = 0.0<br/>samples = 1<br/>value = [0, 0, 1]<br/>class = Precipitation>, fillcolor="#8139e5ff"] ;
276 -> 278 ;
279 [label=<entropy = 0.0<br/>samples = 4<br/>value = [0, 0, 4]<br/>class = Precipitation>, fillcolor="#8139e5ff"] ;
275 -> 279 ;
280 [label=<entropy = 0.0<br/>samples = 5<br/>value = [0, 5, 0]<br/>class = Cloudy>, fillcolor="#39e581ff"] ;
274 -> 280 ;
281 [label=<Visibilty &le; -0.682<br/>entropy = 1.201<br/>samples = 433<br/>value = [20, 244, 169]<br/>class = Cloudy>, fillcolor="#39e58148"] ;
3 -> 281 ;
282 [label=<Pressure Trend &le; -0.473<br/>entropy = 1.078<br/>samples = 229<br/>value = [3, 100, 126]<br/>class = Precipitation>, fillcolor="#8139e533"] ;
281 -> 282 ;
283 [label=<Pressure &le; -1.595<br/>entropy = 0.915<br/>samples = 91<br/>value = [1, 66, 24]<br/>class = Cloudy>, fillcolor="#39e581a0"] ;
282 -> 283 ;
284 [label=<Dew Point &le; -1.256<br/>entropy = 1.135<br/>samples = 18<br/>value = [1, 5, 12]<br/>class = Precipitation>, fillcolor="#8139e589"] ;
283 -> 284 ;
285 [label=<entropy = 0.0<br/>samples = 1<br/>value = [1, 0, 0]<br/>class = Clear>, fillcolor="#e58139ff"] ;
284 -> 285 ;
286 [label=<Longitude &le; 0.855<br/>entropy = 0.874<br/>samples = 17<br/>value = [0, 5, 12]<br/>class = Precipitation>, fillcolor="#8139e595"] ;
284 -> 286 ;
287 [label=<Visibilty &le; -0.819<br/>entropy = 0.722<br/>samples = 15<br/>value = [0, 3, 12]<br/>class = Precipitation>, fillcolor="#8139e5bf"] ;
286 -> 287 ;
288 [label=<entropy = 0.0<br/>samples = 10<br/>value = [0, 0, 10]<br/>class = Precipitation>, fillcolor="#8139e5ff"] ;
287 -> 288 ;
289 [label=<Humidity &le; -0.01<br/>entropy = 0.971<br/>samples = 5<br/>value = [0, 3, 2]<br/>class = Cloudy>, fillcolor="#39e58155"] ;
287 -> 289 ;
290 [label=<entropy = 0.0<br/>samples = 2<br/>value = [0, 2, 0]<br/>class = Cloudy>, fillcolor="#39e581ff"] ;
289 -> 290 ;
291 [label=<Humidity &le; 0.737<br/>entropy = 0.918<br/>samples = 3<br/>value = [0, 1, 2]<br/>class = Precipitation>, fillcolor="#8139e57f"] ;
289 -> 291 ;
292 [label=<entropy = 0.0<br/>samples = 2<br/>value = [0, 0, 2]<br/>class = Precipitation>, fillcolor="#8139e5ff"] ;
291 -> 292 ;
293 [label=<entropy = 0.0<br/>samples = 1<br/>value = [0, 1, 0]<br/>class = Cloudy>, fillcolor="#39e581ff"] ;
291 -> 293 ;
294 [label=<entropy = 0.0<br/>samples = 2<br/>value = [0, 2, 0]<br/>class = Cloudy>, fillcolor="#39e581ff"] ;
286 -> 294 ;
295 [label=<Latitude &le; 1.941<br/>entropy = 0.645<br/>samples = 73<br/>value = [0, 61, 12]<br/>class = Cloudy>, fillcolor="#39e581cd"] ;
283 -> 295 ;
296 [label=<Visibilty &le; -1.336<br/>entropy = 0.454<br/>samples = 63<br/>value = [0, 57, 6]<br/>class = Cloudy>, fillcolor="#39e581e4"] ;
295 -> 296 ;
297 [label=<Temperature &le; -0.776<br/>entropy = 0.985<br/>samples = 7<br/>value = [0, 3, 4]<br/>class = Precipitation>, fillcolor="#8139e540"] ;
296 -> 297 ;
298 [label=<entropy = 0.0<br/>samples = 3<br/>value = [0, 0, 3]<br/>class = Precipitation>, fillcolor="#8139e5ff"] ;
297 -> 298 ;
299 [label=<Longitude &le; -1.134<br/>entropy = 0.811<br/>samples = 4<br/>value = [0, 3, 1]<br/>class = Cloudy>, fillcolor="#39e581aa"] ;
297 -> 299 ;
300 [label=<entropy = 0.0<br/>samples = 1<br/>value = [0, 0, 1]<br/>class = Precipitation>, fillcolor="#8139e5ff"] ;
299 -> 300 ;
301 [label=<entropy = 0.0<br/>samples = 3<br/>value = [0, 3, 0]<br/>class = Cloudy>, fillcolor="#39e581ff"] ;
299 -> 301 ;
302 [label=<Longitude &le; 0.095<br/>entropy = 0.222<br/>samples = 56<br/>value = [0, 54, 2]<br/>class = Cloudy>, fillcolor="#39e581f6"] ;
296 -> 302 ;
303 [label=<Wind Direction &le; 0.589<br/>entropy = 0.454<br/>samples = 21<br/>value = [0, 19, 2]<br/>class = Cloudy>, fillcolor="#39e581e4"] ;
302 -> 303 ;
304 [label=<Temperature &le; -1.635<br/>entropy = 0.286<br/>samples = 20<br/>value = [0, 19, 1]<br/>class = Cloudy>, fillcolor="#39e581f2"] ;
303 -> 304 ;
305 [label=<Visibilty &le; -0.819<br/>entropy = 1.0<br/>samples = 2<br/>value = [0, 1, 1]<br/>class = Cloudy>, fillcolor="#39e58100"] ;
304 -> 305 ;
306 [label=<entropy = 0.0<br/>samples = 1<br/>value = [0, 0, 1]<br/>class = Precipitation>, fillcolor="#8139e5ff"] ;
305 -> 306 ;
307 [label=<entropy = 0.0<br/>samples = 1<br/>value = [0, 1, 0]<br/>class = Cloudy>, fillcolor="#39e581ff"] ;
305 -> 307 ;
308 [label=<entropy = 0.0<br/>samples = 18<br/>value = [0, 18, 0]<br/>class = Cloudy>, fillcolor="#39e581ff"] ;
304 -> 308 ;
309 [label=<entropy = 0.0<br/>samples = 1<br/>value = [0, 0, 1]<br/>class = Precipitation>, fillcolor="#8139e5ff"] ;
303 -> 309 ;
310 [label=<entropy = 0.0<br/>samples = 35<br/>value = [0, 35, 0]<br/>class = Cloudy>, fillcolor="#39e581ff"] ;
302 -> 310 ;
311 [label=<Latitude &le; 2.554<br/>entropy = 0.971<br/>samples = 10<br/>value = [0, 4, 6]<br/>class = Precipitation>, fillcolor="#8139e555"] ;
295 -> 311 ;
312 [label=<entropy = 0.0<br/>samples = 3<br/>value = [0, 0, 3]<br/>class = Precipitation>, fillcolor="#8139e5ff"] ;
311 -> 312 ;
313 [label=<Visibilty &le; -0.956<br/>entropy = 0.985<br/>samples = 7<br/>value = [0, 4, 3]<br/>class = Cloudy>, fillcolor="#39e58140"] ;
311 -> 313 ;
314 [label=<entropy = 0.0<br/>samples = 3<br/>value = [0, 0, 3]<br/>class = Precipitation>, fillcolor="#8139e5ff"] ;
313 -> 314 ;
315 [label=<entropy = 0.0<br/>samples = 4<br/>value = [0, 4, 0]<br/>class = Cloudy>, fillcolor="#39e581ff"] ;
313 -> 315 ;
316 [label=<Temperature &le; -2.325<br/>entropy = 0.909<br/>samples = 138<br/>value = [2, 34, 102]<br/>class = Precipitation>, fillcolor="#8139e5a7"] ;
282 -> 316 ;
317 [label=<Visibilty &le; -0.921<br/>entropy = 0.918<br/>samples = 6<br/>value = [2, 4, 0]<br/>class = Cloudy>, fillcolor="#39e5817f"] ;
316 -> 317 ;
318 [label=<entropy = 0.0<br/>samples = 4<br/>value = [0, 4, 0]<br/>class = Cloudy>, fillcolor="#39e581ff"] ;
317 -> 318 ;
319 [label=<entropy = 0.0<br/>samples = 2<br/>value = [2, 0, 0]<br/>class = Clear>, fillcolor="#e58139ff"] ;
317 -> 319 ;
320 [label=<Humidity &le; -1.012<br/>entropy = 0.773<br/>samples = 132<br/>value = [0, 30, 102]<br/>class = Precipitation>, fillcolor="#8139e5b4"] ;
316 -> 320 ;
321 [label=<Longitude &le; -1.803<br/>entropy = 0.9<br/>samples = 19<br/>value = [0, 13, 6]<br/>class = Cloudy>, fillcolor="#39e58189"] ;
320 -> 321 ;
322 [label=<entropy = 0.0<br/>samples = 4<br/>value = [0, 0, 4]<br/>class = Precipitation>, fillcolor="#8139e5ff"] ;
321 -> 322 ;
323 [label=<Temperature &le; 0.224<br/>entropy = 0.567<br/>samples = 15<br/>value = [0, 13, 2]<br/>class = Cloudy>, fillcolor="#39e581d8"] ;
321 -> 323 ;
324 [label=<Latitude &le; 2.174<br/>entropy = 0.371<br/>samples = 14<br/>value = [0, 13, 1]<br/>class = Cloudy>, fillcolor="#39e581eb"] ;
323 -> 324 ;
325 [label=<entropy = 0.0<br/>samples = 10<br/>value = [0, 10, 0]<br/>class = Cloudy>, fillcolor="#39e581ff"] ;
324 -> 325 ;
326 [label=<Longitude &le; 0.686<br/>entropy = 0.811<br/>samples = 4<br/>value = [0, 3, 1]<br/>class = Cloudy>, fillcolor="#39e581aa"] ;
324 -> 326 ;
327 [label=<entropy = 0.0<br/>samples = 1<br/>value = [0, 0, 1]<br/>class = Precipitation>, fillcolor="#8139e5ff"] ;
326 -> 327 ;
328 [label=<entropy = 0.0<br/>samples = 3<br/>value = [0, 3, 0]<br/>class = Cloudy>, fillcolor="#39e581ff"] ;
326 -> 328 ;
329 [label=<entropy = 0.0<br/>samples = 1<br/>value = [0, 0, 1]<br/>class = Precipitation>, fillcolor="#8139e5ff"] ;
323 -> 329 ;
330 [label=<Temperature &le; -0.409<br/>entropy = 0.611<br/>samples = 113<br/>value = [0, 17, 96]<br/>class = Precipitation>, fillcolor="#8139e5d2"] ;
320 -> 330 ;
331 [label=<Latitude &le; 1.567<br/>entropy = 0.516<br/>samples = 104<br/>value = [0, 12, 92]<br/>class = Precipitation>, fillcolor="#8139e5de"] ;
330 -> 331 ;
332 [label=<Humidity &le; 1.281<br/>entropy = 0.65<br/>samples = 72<br/>value = [0, 12, 60]<br/>class = Precipitation>, fillcolor="#8139e5cc"] ;
331 -> 332 ;
333 [label=<Pressure &le; -0.662<br/>entropy = 0.592<br/>samples = 70<br/>value = [0, 10, 60]<br/>class = Precipitation>, fillcolor="#8139e5d4"] ;
332 -> 333 ;
334 [label=<Wind Direction &le; 0.893<br/>entropy = 0.434<br/>samples = 56<br/>value = [0, 5, 51]<br/>class = Precipitation>, fillcolor="#8139e5e6"] ;
333 -> 334 ;
335 [label=<Humidity &le; 0.961<br/>entropy = 0.602<br/>samples = 34<br/>value = [0, 5, 29]<br/>class = Precipitation>, fillcolor="#8139e5d3"] ;
334 -> 335 ;
336 [label=<Latitude &le; 0.453<br/>entropy = 0.459<br/>samples = 31<br/>value = [0, 3, 28]<br/>class = Precipitation>, fillcolor="#8139e5e4"] ;
335 -> 336 ;
337 [label=<Pressure &le; -1.362<br/>entropy = 0.811<br/>samples = 12<br/>value = [0, 3, 9]<br/>class = Precipitation>, fillcolor="#8139e5aa"] ;
336 -> 337 ;
338 [label=<entropy = 0.0<br/>samples = 5<br/>value = [0, 0, 5]<br/>class = Precipitation>, fillcolor="#8139e5ff"] ;
337 -> 338 ;
339 [label=<Dew Point &le; -1.038<br/>entropy = 0.985<br/>samples = 7<br/>value = [0, 3, 4]<br/>class = Precipitation>, fillcolor="#8139e540"] ;
337 -> 339 ;
340 [label=<entropy = 0.0<br/>samples = 2<br/>value = [0, 0, 2]<br/>class = Precipitation>, fillcolor="#8139e5ff"] ;
339 -> 340 ;
341 [label=<Pressure &le; -1.129<br/>entropy = 0.971<br/>samples = 5<br/>value = [0, 3, 2]<br/>class = Cloudy>, fillcolor="#39e58155"] ;
339 -> 341 ;
342 [label=<entropy = 0.0<br/>samples = 2<br/>value = [0, 2, 0]<br/>class = Cloudy>, fillcolor="#39e581ff"] ;
341 -> 342 ;
343 [label=<Longitude &le; -2.536<br/>entropy = 0.918<br/>samples = 3<br/>value = [0, 1, 2]<br/>class = Precipitation>, fillcolor="#8139e57f"] ;
341 -> 343 ;
344 [label=<entropy = 0.0<br/>samples = 1<br/>value = [0, 1, 0]<br/>class = Cloudy>, fillcolor="#39e581ff"] ;
343 -> 344 ;
345 [label=<entropy = 0.0<br/>samples = 2<br/>value = [0, 0, 2]<br/>class = Precipitation>, fillcolor="#8139e5ff"] ;
343 -> 345 ;
346 [label=<entropy = 0.0<br/>samples = 19<br/>value = [0, 0, 19]<br/>class = Precipitation>, fillcolor="#8139e5ff"] ;
336 -> 346 ;
347 [label=<Visibilty &le; -0.853<br/>entropy = 0.918<br/>samples = 3<br/>value = [0, 2, 1]<br/>class = Cloudy>, fillcolor="#39e5817f"] ;
335 -> 347 ;
348 [label=<entropy = 0.0<br/>samples = 2<br/>value = [0, 2, 0]<br/>class = Cloudy>, fillcolor="#39e581ff"] ;
347 -> 348 ;
349 [label=<entropy = 0.0<br/>samples = 1<br/>value = [0, 0, 1]<br/>class = Precipitation>, fillcolor="#8139e5ff"] ;
347 -> 349 ;
350 [label=<entropy = 0.0<br/>samples = 22<br/>value = [0, 0, 22]<br/>class = Precipitation>, fillcolor="#8139e5ff"] ;
334 -> 350 ;
351 [label=<Pressure &le; -0.546<br/>entropy = 0.94<br/>samples = 14<br/>value = [0, 5, 9]<br/>class = Precipitation>, fillcolor="#8139e571"] ;
333 -> 351 ;
352 [label=<Humidity &le; 0.91<br/>entropy = 0.722<br/>samples = 5<br/>value = [0, 4, 1]<br/>class = Cloudy>, fillcolor="#39e581bf"] ;
351 -> 352 ;
353 [label=<entropy = 0.0<br/>samples = 4<br/>value = [0, 4, 0]<br/>class = Cloudy>, fillcolor="#39e581ff"] ;
352 -> 353 ;
354 [label=<entropy = 0.0<br/>samples = 1<br/>value = [0, 0, 1]<br/>class = Precipitation>, fillcolor="#8139e5ff"] ;
352 -> 354 ;
355 [label=<Temperature &le; -1.536<br/>entropy = 0.503<br/>samples = 9<br/>value = [0, 1, 8]<br/>class = Precipitation>, fillcolor="#8139e5df"] ;
351 -> 355 ;
356 [label=<entropy = 0.0<br/>samples = 1<br/>value = [0, 1, 0]<br/>class = Cloudy>, fillcolor="#39e581ff"] ;
355 -> 356 ;
357 [label=<entropy = 0.0<br/>samples = 8<br/>value = [0, 0, 8]<br/>class = Precipitation>, fillcolor="#8139e5ff"] ;
355 -> 357 ;
358 [label=<entropy = 0.0<br/>samples = 2<br/>value = [0, 2, 0]<br/>class = Cloudy>, fillcolor="#39e581ff"] ;
332 -> 358 ;
359 [label=<entropy = 0.0<br/>samples = 32<br/>value = [0, 0, 32]<br/>class = Precipitation>, fillcolor="#8139e5ff"] ;
331 -> 359 ;
360 [label=<Visibilty &le; -0.819<br/>entropy = 0.991<br/>samples = 9<br/>value = [0, 5, 4]<br/>class = Cloudy>, fillcolor="#39e58133"] ;
330 -> 360 ;
361 [label=<Humidity &le; -0.01<br/>entropy = 0.918<br/>samples = 6<br/>value = [0, 2, 4]<br/>class = Precipitation>, fillcolor="#8139e57f"] ;
360 -> 361 ;
362 [label=<entropy = 0.0<br/>samples = 4<br/>value = [0, 0, 4]<br/>class = Precipitation>, fillcolor="#8139e5ff"] ;
361 -> 362 ;
363 [label=<entropy = 0.0<br/>samples = 2<br/>value = [0, 2, 0]<br/>class = Cloudy>, fillcolor="#39e581ff"] ;
361 -> 363 ;
364 [label=<entropy = 0.0<br/>samples = 3<br/>value = [0, 3, 0]<br/>class = Cloudy>, fillcolor="#39e581ff"] ;
360 -> 364 ;
365 [label=<Dew Point &le; -1.365<br/>entropy = 1.127<br/>samples = 204<br/>value = [17, 144, 43]<br/>class = Cloudy>, fillcolor="#39e581a0"] ;
281 -> 365 ;
366 [label=<Temperature &le; -2.24<br/>entropy = 0.75<br/>samples = 28<br/>value = [6, 22, 0]<br/>class = Cloudy>, fillcolor="#39e581b9"] ;
365 -> 366 ;
367 [label=<entropy = 0.0<br/>samples = 3<br/>value = [3, 0, 0]<br/>class = Clear>, fillcolor="#e58139ff"] ;
366 -> 367 ;
368 [label=<Longitude &le; -0.022<br/>entropy = 0.529<br/>samples = 25<br/>value = [3, 22, 0]<br/>class = Cloudy>, fillcolor="#39e581dc"] ;
366 -> 368 ;
369 [label=<entropy = 0.0<br/>samples = 10<br/>value = [0, 10, 0]<br/>class = Cloudy>, fillcolor="#39e581ff"] ;
368 -> 369 ;
370 [label=<Longitude &le; 0.631<br/>entropy = 0.722<br/>samples = 15<br/>value = [3, 12, 0]<br/>class = Cloudy>, fillcolor="#39e581bf"] ;
368 -> 370 ;
371 [label=<Humidity &le; 0.763<br/>entropy = 0.971<br/>samples = 5<br/>value = [3, 2, 0]<br/>class = Clear>, fillcolor="#e5813955"] ;
370 -> 371 ;
372 [label=<Wind Direction &le; 1.197<br/>entropy = 0.811<br/>samples = 4<br/>value = [3, 1, 0]<br/>class = Clear>, fillcolor="#e58139aa"] ;
371 -> 372 ;
373 [label=<entropy = 0.0<br/>samples = 3<br/>value = [3, 0, 0]<br/>class = Clear>, fillcolor="#e58139ff"] ;
372 -> 373 ;
374 [label=<entropy = 0.0<br/>samples = 1<br/>value = [0, 1, 0]<br/>class = Cloudy>, fillcolor="#39e581ff"] ;
372 -> 374 ;
375 [label=<entropy = 0.0<br/>samples = 1<br/>value = [0, 1, 0]<br/>class = Cloudy>, fillcolor="#39e581ff"] ;
371 -> 375 ;
376 [label=<entropy = 0.0<br/>samples = 10<br/>value = [0, 10, 0]<br/>class = Cloudy>, fillcolor="#39e581ff"] ;
370 -> 376 ;
377 [label=<Latitude &le; 1.507<br/>entropy = 1.113<br/>samples = 176<br/>value = [11, 122, 43]<br/>class = Cloudy>, fillcolor="#39e58197"] ;
365 -> 377 ;
378 [label=<Temperature &le; -0.24<br/>entropy = 0.897<br/>samples = 113<br/>value = [6, 90, 17]<br/>class = Cloudy>, fillcolor="#39e581c2"] ;
377 -> 378 ;
379 [label=<Longitude &le; 0.408<br/>entropy = 0.924<br/>samples = 86<br/>value = [3, 66, 17]<br/>class = Cloudy>, fillcolor="#39e581b5"] ;
378 -> 379 ;
380 [label=<Latitude &le; 0.6<br/>entropy = 0.937<br/>samples = 65<br/>value = [1, 47, 17]<br/>class = Cloudy>, fillcolor="#39e5819f"] ;
379 -> 380 ;
381 [label=<Temperature &le; -0.353<br/>entropy = 1.222<br/>samples = 21<br/>value = [1, 9, 11]<br/>class = Precipitation>, fillcolor="#8139e52b"] ;
380 -> 381 ;
382 [label=<Dew Point &le; -1.215<br/>entropy = 1.0<br/>samples = 18<br/>value = [0, 9, 9]<br/>class = Cloudy>, fillcolor="#39e58100"] ;
381 -> 382 ;
383 [label=<entropy = 0.0<br/>samples = 3<br/>value = [0, 3, 0]<br/>class = Cloudy>, fillcolor="#39e581ff"] ;
382 -> 383 ;
384 [label=<Pressure Trend &le; 0.532<br/>entropy = 0.971<br/>samples = 15<br/>value = [0, 6, 9]<br/>class = Precipitation>, fillcolor="#8139e555"] ;
382 -> 384 ;
385 [label=<Latitude &le; 0.442<br/>entropy = 0.722<br/>samples = 5<br/>value = [0, 4, 1]<br/>class = Cloudy>, fillcolor="#39e581bf"] ;
384 -> 385 ;
386 [label=<entropy = 0.0<br/>samples = 4<br/>value = [0, 4, 0]<br/>class = Cloudy>, fillcolor="#39e581ff"] ;
385 -> 386 ;
387 [label=<entropy = 0.0<br/>samples = 1<br/>value = [0, 0, 1]<br/>class = Precipitation>, fillcolor="#8139e5ff"] ;
385 -> 387 ;
388 [label=<Longitude &le; -1.545<br/>entropy = 0.722<br/>samples = 10<br/>value = [0, 2, 8]<br/>class = Precipitation>, fillcolor="#8139e5bf"] ;
384 -> 388 ;
389 [label=<Pressure &le; -0.837<br/>entropy = 1.0<br/>samples = 4<br/>value = [0, 2, 2]<br/>class = Cloudy>, fillcolor="#39e58100"] ;
388 -> 389 ;
390 [label=<entropy = 0.0<br/>samples = 2<br/>value = [0, 2, 0]<br/>class = Cloudy>, fillcolor="#39e581ff"] ;
389 -> 390 ;
391 [label=<entropy = 0.0<br/>samples = 2<br/>value = [0, 0, 2]<br/>class = Precipitation>, fillcolor="#8139e5ff"] ;
389 -> 391 ;
392 [label=<entropy = 0.0<br/>samples = 6<br/>value = [0, 0, 6]<br/>class = Precipitation>, fillcolor="#8139e5ff"] ;
388 -> 392 ;
393 [label=<Latitude &le; 0.431<br/>entropy = 0.918<br/>samples = 3<br/>value = [1, 0, 2]<br/>class = Precipitation>, fillcolor="#8139e57f"] ;
381 -> 393 ;
394 [label=<entropy = 0.0<br/>samples = 2<br/>value = [0, 0, 2]<br/>class = Precipitation>, fillcolor="#8139e5ff"] ;
393 -> 394 ;
395 [label=<entropy = 0.0<br/>samples = 1<br/>value = [1, 0, 0]<br/>class = Clear>, fillcolor="#e58139ff"] ;
393 -> 395 ;
396 [label=<Humidity &le; -0.646<br/>entropy = 0.575<br/>samples = 44<br/>value = [0, 38, 6]<br/>class = Cloudy>, fillcolor="#39e581d7"] ;
380 -> 396 ;
397 [label=<entropy = 0.0<br/>samples = 18<br/>value = [0, 18, 0]<br/>class = Cloudy>, fillcolor="#39e581ff"] ;
396 -> 397 ;
398 [label=<Humidity &le; -0.28<br/>entropy = 0.779<br/>samples = 26<br/>value = [0, 20, 6]<br/>class = Cloudy>, fillcolor="#39e581b3"] ;
396 -> 398 ;
399 [label=<entropy = 0.0<br/>samples = 3<br/>value = [0, 0, 3]<br/>class = Precipitation>, fillcolor="#8139e5ff"] ;
398 -> 399 ;
400 [label=<Wind Direction &le; 0.285<br/>entropy = 0.559<br/>samples = 23<br/>value = [0, 20, 3]<br/>class = Cloudy>, fillcolor="#39e581d9"] ;
398 -> 400 ;
401 [label=<entropy = 0.0<br/>samples = 12<br/>value = [0, 12, 0]<br/>class = Cloudy>, fillcolor="#39e581ff"] ;
400 -> 401 ;
402 [label=<Temperature &le; -0.959<br/>entropy = 0.845<br/>samples = 11<br/>value = [0, 8, 3]<br/>class = Cloudy>, fillcolor="#39e5819f"] ;
400 -> 402 ;
403 [label=<entropy = 0.0<br/>samples = 4<br/>value = [0, 4, 0]<br/>class = Cloudy>, fillcolor="#39e581ff"] ;
402 -> 403 ;
404 [label=<Temperature &le; -0.719<br/>entropy = 0.985<br/>samples = 7<br/>value = [0, 4, 3]<br/>class = Cloudy>, fillcolor="#39e58140"] ;
402 -> 404 ;
405 [label=<Longitude &le; -0.684<br/>entropy = 0.811<br/>samples = 4<br/>value = [0, 1, 3]<br/>class = Precipitation>, fillcolor="#8139e5aa"] ;
404 -> 405 ;
406 [label=<entropy = 0.0<br/>samples = 2<br/>value = [0, 0, 2]<br/>class = Precipitation>, fillcolor="#8139e5ff"] ;
405 -> 406 ;
407 [label=<Pressure &le; -0.546<br/>entropy = 1.0<br/>samples = 2<br/>value = [0, 1, 1]<br/>class = Cloudy>, fillcolor="#39e58100"] ;
405 -> 407 ;
408 [label=<entropy = 0.0<br/>samples = 1<br/>value = [0, 1, 0]<br/>class = Cloudy>, fillcolor="#39e581ff"] ;
407 -> 408 ;
409 [label=<entropy = 0.0<br/>samples = 1<br/>value = [0, 0, 1]<br/>class = Precipitation>, fillcolor="#8139e5ff"] ;
407 -> 409 ;
410 [label=<entropy = 0.0<br/>samples = 3<br/>value = [0, 3, 0]<br/>class = Cloudy>, fillcolor="#39e581ff"] ;
404 -> 410 ;
411 [label=<Dew Point &le; -0.998<br/>entropy = 0.454<br/>samples = 21<br/>value = [2, 19, 0]<br/>class = Cloudy>, fillcolor="#39e581e4"] ;
379 -> 411 ;
412 [label=<entropy = 0.0<br/>samples = 2<br/>value = [2, 0, 0]<br/>class = Clear>, fillcolor="#e58139ff"] ;
411 -> 412 ;
413 [label=<entropy = 0.0<br/>samples = 19<br/>value = [0, 19, 0]<br/>class = Cloudy>, fillcolor="#39e581ff"] ;
411 -> 413 ;
414 [label=<Pressure &le; -0.312<br/>entropy = 0.503<br/>samples = 27<br/>value = [3, 24, 0]<br/>class = Cloudy>, fillcolor="#39e581df"] ;
378 -> 414 ;
415 [label=<entropy = 0.0<br/>samples = 18<br/>value = [0, 18, 0]<br/>class = Cloudy>, fillcolor="#39e581ff"] ;
414 -> 415 ;
416 [label=<Wind Direction &le; 0.741<br/>entropy = 0.918<br/>samples = 9<br/>value = [3, 6, 0]<br/>class = Cloudy>, fillcolor="#39e5817f"] ;
414 -> 416 ;
417 [label=<entropy = 0.0<br/>samples = 4<br/>value = [0, 4, 0]<br/>class = Cloudy>, fillcolor="#39e581ff"] ;
416 -> 417 ;
418 [label=<Visibilty &le; -0.613<br/>entropy = 0.971<br/>samples = 5<br/>value = [3, 2, 0]<br/>class = Clear>, fillcolor="#e5813955"] ;
416 -> 418 ;
419 [label=<entropy = 0.0<br/>samples = 1<br/>value = [0, 1, 0]<br/>class = Cloudy>, fillcolor="#39e581ff"] ;
418 -> 419 ;
420 [label=<Humidity &le; -2.192<br/>entropy = 0.811<br/>samples = 4<br/>value = [3, 1, 0]<br/>class = Clear>, fillcolor="#e58139aa"] ;
418 -> 420 ;
421 [label=<entropy = 0.0<br/>samples = 1<br/>value = [0, 1, 0]<br/>class = Cloudy>, fillcolor="#39e581ff"] ;
420 -> 421 ;
422 [label=<entropy = 0.0<br/>samples = 3<br/>value = [3, 0, 0]<br/>class = Clear>, fillcolor="#e58139ff"] ;
420 -> 422 ;
423 [label=<Temperature &le; -0.409<br/>entropy = 1.313<br/>samples = 63<br/>value = [5, 32, 26]<br/>class = Cloudy>, fillcolor="#39e58129"] ;
377 -> 423 ;
424 [label=<Wind Direction &le; 1.197<br/>entropy = 1.215<br/>samples = 44<br/>value = [2, 19, 23]<br/>class = Precipitation>, fillcolor="#8139e529"] ;
423 -> 424 ;
425 [label=<Wind Direction &le; -0.932<br/>entropy = 1.058<br/>samples = 31<br/>value = [1, 9, 21]<br/>class = Precipitation>, fillcolor="#8139e58b"] ;
424 -> 425 ;
426 [label=<Dew Point &le; -0.576<br/>entropy = 0.811<br/>samples = 4<br/>value = [1, 0, 3]<br/>class = Precipitation>, fillcolor="#8139e5aa"] ;
425 -> 426 ;
427 [label=<entropy = 0.0<br/>samples = 3<br/>value = [0, 0, 3]<br/>class = Precipitation>, fillcolor="#8139e5ff"] ;
426 -> 427 ;
428 [label=<entropy = 0.0<br/>samples = 1<br/>value = [1, 0, 0]<br/>class = Clear>, fillcolor="#e58139ff"] ;
426 -> 428 ;
429 [label=<Pressure &le; -1.537<br/>entropy = 0.918<br/>samples = 27<br/>value = [0, 9, 18]<br/>class = Precipitation>, fillcolor="#8139e57f"] ;
425 -> 429 ;
430 [label=<Humidity &le; 0.417<br/>entropy = 0.592<br/>samples = 14<br/>value = [0, 2, 12]<br/>class = Precipitation>, fillcolor="#8139e5d4"] ;
429 -> 430 ;
431 [label=<entropy = 0.0<br/>samples = 9<br/>value = [0, 0, 9]<br/>class = Precipitation>, fillcolor="#8139e5ff"] ;
430 -> 431 ;
432 [label=<Pressure &le; -2.003<br/>entropy = 0.971<br/>samples = 5<br/>value = [0, 2, 3]<br/>class = Precipitation>, fillcolor="#8139e555"] ;
430 -> 432 ;
433 [label=<entropy = 0.0<br/>samples = 2<br/>value = [0, 2, 0]<br/>class = Cloudy>, fillcolor="#39e581ff"] ;
432 -> 433 ;
434 [label=<entropy = 0.0<br/>samples = 3<br/>value = [0, 0, 3]<br/>class = Precipitation>, fillcolor="#8139e5ff"] ;
432 -> 434 ;
435 [label=<Humidity &le; -0.961<br/>entropy = 0.996<br/>samples = 13<br/>value = [0, 7, 6]<br/>class = Cloudy>, fillcolor="#39e58124"] ;
429 -> 435 ;
436 [label=<entropy = 0.0<br/>samples = 2<br/>value = [0, 0, 2]<br/>class = Precipitation>, fillcolor="#8139e5ff"] ;
435 -> 436 ;
437 [label=<Visibilty &le; -0.613<br/>entropy = 0.946<br/>samples = 11<br/>value = [0, 7, 4]<br/>class = Cloudy>, fillcolor="#39e5816d"] ;
435 -> 437 ;
438 [label=<Wind Direction &le; -0.171<br/>entropy = 0.811<br/>samples = 4<br/>value = [0, 1, 3]<br/>class = Precipitation>, fillcolor="#8139e5aa"] ;
437 -> 438 ;
439 [label=<entropy = 0.0<br/>samples = 1<br/>value = [0, 1, 0]<br/>class = Cloudy>, fillcolor="#39e581ff"] ;
438 -> 439 ;
440 [label=<entropy = 0.0<br/>samples = 3<br/>value = [0, 0, 3]<br/>class = Precipitation>, fillcolor="#8139e5ff"] ;
438 -> 440 ;
441 [label=<Wind Direction &le; -0.323<br/>entropy = 0.592<br/>samples = 7<br/>value = [0, 6, 1]<br/>class = Cloudy>, fillcolor="#39e581d4"] ;
437 -> 441 ;
442 [label=<entropy = 0.0<br/>samples = 1<br/>value = [0, 0, 1]<br/>class = Precipitation>, fillcolor="#8139e5ff"] ;
441 -> 442 ;
443 [label=<entropy = 0.0<br/>samples = 6<br/>value = [0, 6, 0]<br/>class = Cloudy>, fillcolor="#39e581ff"] ;
441 -> 443 ;
444 [label=<Latitude &le; 1.613<br/>entropy = 0.991<br/>samples = 13<br/>value = [1, 10, 2]<br/>class = Cloudy>, fillcolor="#39e581b9"] ;
424 -> 444 ;
445 [label=<entropy = 0.0<br/>samples = 1<br/>value = [1, 0, 0]<br/>class = Clear>, fillcolor="#e58139ff"] ;
444 -> 445 ;
446 [label=<Dew Point &le; -1.31<br/>entropy = 0.65<br/>samples = 12<br/>value = [0, 10, 2]<br/>class = Cloudy>, fillcolor="#39e581cc"] ;
444 -> 446 ;
447 [label=<entropy = 0.0<br/>samples = 1<br/>value = [0, 0, 1]<br/>class = Precipitation>, fillcolor="#8139e5ff"] ;
446 -> 447 ;
448 [label=<Dew Point &le; -0.644<br/>entropy = 0.439<br/>samples = 11<br/>value = [0, 10, 1]<br/>class = Cloudy>, fillcolor="#39e581e6"] ;
446 -> 448 ;
449 [label=<entropy = 0.0<br/>samples = 9<br/>value = [0, 9, 0]<br/>class = Cloudy>, fillcolor="#39e581ff"] ;
448 -> 449 ;
450 [label=<Wind Direction &le; 1.501<br/>entropy = 1.0<br/>samples = 2<br/>value = [0, 1, 1]<br/>class = Cloudy>, fillcolor="#39e58100"] ;
448 -> 450 ;
451 [label=<entropy = 0.0<br/>samples = 1<br/>value = [0, 1, 0]<br/>class = Cloudy>, fillcolor="#39e581ff"] ;
450 -> 451 ;
452 [label=<entropy = 0.0<br/>samples = 1<br/>value = [0, 0, 1]<br/>class = Precipitation>, fillcolor="#8139e5ff"] ;
450 -> 452 ;
453 [label=<Pressure &le; -1.362<br/>entropy = 1.216<br/>samples = 19<br/>value = [3, 13, 3]<br/>class = Cloudy>, fillcolor="#39e5819f"] ;
423 -> 453 ;
454 [label=<Visibilty &le; -0.408<br/>entropy = 0.845<br/>samples = 11<br/>value = [3, 8, 0]<br/>class = Cloudy>, fillcolor="#39e5819f"] ;
453 -> 454 ;
455 [label=<Temperature &le; 0.182<br/>entropy = 0.503<br/>samples = 9<br/>value = [1, 8, 0]<br/>class = Cloudy>, fillcolor="#39e581df"] ;
454 -> 455 ;
456 [label=<entropy = 0.0<br/>samples = 8<br/>value = [0, 8, 0]<br/>class = Cloudy>, fillcolor="#39e581ff"] ;
455 -> 456 ;
457 [label=<entropy = 0.0<br/>samples = 1<br/>value = [1, 0, 0]<br/>class = Clear>, fillcolor="#e58139ff"] ;
455 -> 457 ;
458 [label=<entropy = 0.0<br/>samples = 2<br/>value = [2, 0, 0]<br/>class = Clear>, fillcolor="#e58139ff"] ;
454 -> 458 ;
459 [label=<Humidity &le; -1.002<br/>entropy = 0.954<br/>samples = 8<br/>value = [0, 5, 3]<br/>class = Cloudy>, fillcolor="#39e58166"] ;
453 -> 459 ;
460 [label=<entropy = 0.0<br/>samples = 2<br/>value = [0, 2, 0]<br/>class = Cloudy>, fillcolor="#39e581ff"] ;
459 -> 460 ;
461 [label=<Wind Direction &le; -0.019<br/>entropy = 1.0<br/>samples = 6<br/>value = [0, 3, 3]<br/>class = Cloudy>, fillcolor="#39e58100"] ;
459 -> 461 ;
462 [label=<Visibilty &le; -0.545<br/>entropy = 0.971<br/>samples = 5<br/>value = [0, 3, 2]<br/>class = Cloudy>, fillcolor="#39e58155"] ;
461 -> 462 ;
463 [label=<entropy = 0.0<br/>samples = 2<br/>value = [0, 2, 0]<br/>class = Cloudy>, fillcolor="#39e581ff"] ;
462 -> 463 ;
464 [label=<Pressure Trend &le; 0.029<br/>entropy = 0.918<br/>samples = 3<br/>value = [0, 1, 2]<br/>class = Precipitation>, fillcolor="#8139e57f"] ;
462 -> 464 ;
465 [label=<entropy = 0.0<br/>samples = 2<br/>value = [0, 0, 2]<br/>class = Precipitation>, fillcolor="#8139e5ff"] ;
464 -> 465 ;
466 [label=<entropy = 0.0<br/>samples = 1<br/>value = [0, 1, 0]<br/>class = Cloudy>, fillcolor="#39e581ff"] ;
464 -> 466 ;
467 [label=<entropy = 0.0<br/>samples = 1<br/>value = [0, 0, 1]<br/>class = Precipitation>, fillcolor="#8139e5ff"] ;
461 -> 467 ;
468 [label=<Pressure Trend &le; -0.473<br/>entropy = 1.03<br/>samples = 3251<br/>value = [801, 2321, 129]<br/>class = Cloudy>, fillcolor="#39e5819e"] ;
2 -> 468 ;
469 [label=<Dew Point &le; -1.066<br/>entropy = 0.724<br/>samples = 1053<br/>value = [123, 895, 35]<br/>class = Cloudy>, fillcolor="#39e581d4"] ;
468 -> 469 ;
470 [label=<Dew Point &le; -2.357<br/>entropy = 0.894<br/>samples = 221<br/>value = [57, 162, 2]<br/>class = Cloudy>, fillcolor="#39e581a3"] ;
469 -> 470 ;
471 [label=<entropy = 0.0<br/>samples = 15<br/>value = [0, 15, 0]<br/>class = Cloudy>, fillcolor="#39e581ff"] ;
470 -> 471 ;
472 [label=<Pressure &le; -0.429<br/>entropy = 0.925<br/>samples = 206<br/>value = [57, 147, 2]<br/>class = Cloudy>, fillcolor="#39e5819a"] ;
470 -> 472 ;
473 [label=<Pressure &le; -1.129<br/>entropy = 0.839<br/>samples = 116<br/>value = [23, 91, 2]<br/>class = Cloudy>, fillcolor="#39e581ba"] ;
472 -> 473 ;
474 [label=<Visibilty &le; 0.242<br/>entropy = 1.104<br/>samples = 42<br/>value = [16, 25, 1]<br/>class = Cloudy>, fillcolor="#39e58158"] ;
473 -> 474 ;
475 [label=<Temperature &le; -0.691<br/>entropy = 0.811<br/>samples = 4<br/>value = [3, 0, 1]<br/>class = Clear>, fillcolor="#e58139aa"] ;
474 -> 475 ;
476 [label=<entropy = 0.0<br/>samples = 1<br/>value = [0, 0, 1]<br/>class = Precipitation>, fillcolor="#8139e5ff"] ;
475 -> 476 ;
477 [label=<entropy = 0.0<br/>samples = 3<br/>value = [3, 0, 0]<br/>class = Clear>, fillcolor="#e58139ff"] ;
475 -> 477 ;
478 [label=<Longitude &le; -0.313<br/>entropy = 0.927<br/>samples = 38<br/>value = [13, 25, 0]<br/>class = Cloudy>, fillcolor="#39e5817a"] ;
474 -> 478 ;
479 [label=<Wind Direction &le; -0.019<br/>entropy = 0.629<br/>samples = 19<br/>value = [3, 16, 0]<br/>class = Cloudy>, fillcolor="#39e581cf"] ;
478 -> 479 ;
480 [label=<entropy = 0.0<br/>samples = 7<br/>value = [0, 7, 0]<br/>class = Cloudy>, fillcolor="#39e581ff"] ;
479 -> 480 ;
481 [label=<Wind Direction &le; 0.285<br/>entropy = 0.811<br/>samples = 12<br/>value = [3, 9, 0]<br/>class = Cloudy>, fillcolor="#39e581aa"] ;
479 -> 481 ;
482 [label=<Visibilty &le; 0.722<br/>entropy = 1.0<br/>samples = 6<br/>value = [3, 3, 0]<br/>class = Clear>, fillcolor="#e5813900"] ;
481 -> 482 ;
483 [label=<entropy = 0.0<br/>samples = 1<br/>value = [1, 0, 0]<br/>class = Clear>, fillcolor="#e58139ff"] ;
482 -> 483 ;
484 [label=<Latitude &le; 1.139<br/>entropy = 0.971<br/>samples = 5<br/>value = [2, 3, 0]<br/>class = Cloudy>, fillcolor="#39e58155"] ;
482 -> 484 ;
485 [label=<Visibilty &le; 1.235<br/>entropy = 0.918<br/>samples = 3<br/>value = [2, 1, 0]<br/>class = Clear>, fillcolor="#e581397f"] ;
484 -> 485 ;
486 [label=<entropy = 0.0<br/>samples = 1<br/>value = [0, 1, 0]<br/>class = Cloudy>, fillcolor="#39e581ff"] ;
485 -> 486 ;
487 [label=<entropy = 0.0<br/>samples = 2<br/>value = [2, 0, 0]<br/>class = Clear>, fillcolor="#e58139ff"] ;
485 -> 487 ;
488 [label=<entropy = 0.0<br/>samples = 2<br/>value = [0, 2, 0]<br/>class = Cloudy>, fillcolor="#39e581ff"] ;
484 -> 488 ;
489 [label=<entropy = 0.0<br/>samples = 6<br/>value = [0, 6, 0]<br/>class = Cloudy>, fillcolor="#39e581ff"] ;
481 -> 489 ;
490 [label=<Humidity &le; -3.168<br/>entropy = 0.998<br/>samples = 19<br/>value = [10, 9, 0]<br/>class = Clear>, fillcolor="#e5813919"] ;
478 -> 490 ;
491 [label=<entropy = 0.0<br/>samples = 2<br/>value = [0, 2, 0]<br/>class = Cloudy>, fillcolor="#39e581ff"] ;
490 -> 491 ;
492 [label=<Temperature &le; -0.269<br/>entropy = 0.977<br/>samples = 17<br/>value = [10, 7, 0]<br/>class = Clear>, fillcolor="#e581394d"] ;
490 -> 492 ;
493 [label=<Dew Point &le; -1.256<br/>entropy = 0.918<br/>samples = 9<br/>value = [3, 6, 0]<br/>class = Cloudy>, fillcolor="#39e5817f"] ;
492 -> 493 ;
494 [label=<Humidity &le; -1.826<br/>entropy = 0.971<br/>samples = 5<br/>value = [3, 2, 0]<br/>class = Clear>, fillcolor="#e5813955"] ;
493 -> 494 ;
495 [label=<entropy = 0.0<br/>samples = 2<br/>value = [0, 2, 0]<br/>class = Cloudy>, fillcolor="#39e581ff"] ;
494 -> 495 ;
496 [label=<entropy = 0.0<br/>samples = 3<br/>value = [3, 0, 0]<br/>class = Clear>, fillcolor="#e58139ff"] ;
494 -> 496 ;
497 [label=<entropy = 0.0<br/>samples = 4<br/>value = [0, 4, 0]<br/>class = Cloudy>, fillcolor="#39e581ff"] ;
493 -> 497 ;
498 [label=<Visibilty &le; 0.55<br/>entropy = 0.544<br/>samples = 8<br/>value = [7, 1, 0]<br/>class = Clear>, fillcolor="#e58139db"] ;
492 -> 498 ;
499 [label=<Latitude &le; 1.279<br/>entropy = 1.0<br/>samples = 2<br/>value = [1, 1, 0]<br/>class = Clear>, fillcolor="#e5813900"] ;
498 -> 499 ;
500 [label=<entropy = 0.0<br/>samples = 1<br/>value = [0, 1, 0]<br/>class = Cloudy>, fillcolor="#39e581ff"] ;
499 -> 500 ;
501 [label=<entropy = 0.0<br/>samples = 1<br/>value = [1, 0, 0]<br/>class = Clear>, fillcolor="#e58139ff"] ;
499 -> 501 ;
502 [label=<entropy = 0.0<br/>samples = 6<br/>value = [6, 0, 0]<br/>class = Clear>, fillcolor="#e58139ff"] ;
498 -> 502 ;
503 [label=<Temperature &le; -1.198<br/>entropy = 0.553<br/>samples = 74<br/>value = [7, 66, 1]<br/>class = Cloudy>, fillcolor="#39e581e1"] ;
473 -> 503 ;
504 [label=<Latitude &le; 1.403<br/>entropy = 0.931<br/>samples = 33<br/>value = [7, 25, 1]<br/>class = Cloudy>, fillcolor="#39e581b1"] ;
503 -> 504 ;
505 [label=<entropy = 0.0<br/>samples = 13<br/>value = [0, 13, 0]<br/>class = Cloudy>, fillcolor="#39e581ff"] ;
504 -> 505 ;
506 [label=<Wind Direction &le; 1.197<br/>entropy = 1.188<br/>samples = 20<br/>value = [7, 12, 1]<br/>class = Cloudy>, fillcolor="#39e58162"] ;
504 -> 506 ;
507 [label=<Wind Direction &le; -1.388<br/>entropy = 0.989<br/>samples = 16<br/>value = [7, 9, 0]<br/>class = Cloudy>, fillcolor="#39e58139"] ;
506 -> 507 ;
508 [label=<entropy = 0.0<br/>samples = 3<br/>value = [0, 3, 0]<br/>class = Cloudy>, fillcolor="#39e581ff"] ;
507 -> 508 ;
509 [label=<Wind Direction &le; -0.627<br/>entropy = 0.996<br/>samples = 13<br/>value = [7, 6, 0]<br/>class = Clear>, fillcolor="#e5813924"] ;
507 -> 509 ;
510 [label=<entropy = 0.0<br/>samples = 4<br/>value = [4, 0, 0]<br/>class = Clear>, fillcolor="#e58139ff"] ;
509 -> 510 ;
511 [label=<Visibilty &le; 1.577<br/>entropy = 0.918<br/>samples = 9<br/>value = [3, 6, 0]<br/>class = Cloudy>, fillcolor="#39e5817f"] ;
509 -> 511 ;
512 [label=<Latitude &le; 1.67<br/>entropy = 0.971<br/>samples = 5<br/>value = [3, 2, 0]<br/>class = Clear>, fillcolor="#e5813955"] ;
511 -> 512 ;
513 [label=<entropy = 0.0<br/>samples = 2<br/>value = [2, 0, 0]<br/>class = Clear>, fillcolor="#e58139ff"] ;
512 -> 513 ;
514 [label=<Wind Direction &le; -0.171<br/>entropy = 0.918<br/>samples = 3<br/>value = [1, 2, 0]<br/>class = Cloudy>, fillcolor="#39e5817f"] ;
512 -> 514 ;
515 [label=<entropy = 0.0<br/>samples = 1<br/>value = [1, 0, 0]<br/>class = Clear>, fillcolor="#e58139ff"] ;
514 -> 515 ;
516 [label=<entropy = 0.0<br/>samples = 2<br/>value = [0, 2, 0]<br/>class = Cloudy>, fillcolor="#39e581ff"] ;
514 -> 516 ;
517 [label=<entropy = 0.0<br/>samples = 4<br/>value = [0, 4, 0]<br/>class = Cloudy>, fillcolor="#39e581ff"] ;
511 -> 517 ;
518 [label=<Dew Point &le; -1.541<br/>entropy = 0.811<br/>samples = 4<br/>value = [0, 3, 1]<br/>class = Cloudy>, fillcolor="#39e581aa"] ;
506 -> 518 ;
519 [label=<entropy = 0.0<br/>samples = 3<br/>value = [0, 3, 0]<br/>class = Cloudy>, fillcolor="#39e581ff"] ;
518 -> 519 ;
520 [label=<entropy = 0.0<br/>samples = 1<br/>value = [0, 0, 1]<br/>class = Precipitation>, fillcolor="#8139e5ff"] ;
518 -> 520 ;
521 [label=<entropy = 0.0<br/>samples = 41<br/>value = [0, 41, 0]<br/>class = Cloudy>, fillcolor="#39e581ff"] ;
503 -> 521 ;
522 [label=<Latitude &le; 1.816<br/>entropy = 0.956<br/>samples = 90<br/>value = [34, 56, 0]<br/>class = Cloudy>, fillcolor="#39e58164"] ;
472 -> 522 ;
523 [label=<Humidity &le; 1.022<br/>entropy = 0.991<br/>samples = 72<br/>value = [32, 40, 0]<br/>class = Cloudy>, fillcolor="#39e58133"] ;
522 -> 523 ;
524 [label=<Latitude &le; 0.906<br/>entropy = 1.0<br/>samples = 65<br/>value = [32, 33, 0]<br/>class = Cloudy>, fillcolor="#39e58108"] ;
523 -> 524 ;
525 [label=<entropy = 0.0<br/>samples = 9<br/>value = [9, 0, 0]<br/>class = Clear>, fillcolor="#e58139ff"] ;
524 -> 525 ;
526 [label=<Pressure &le; -0.079<br/>entropy = 0.977<br/>samples = 56<br/>value = [23, 33, 0]<br/>class = Cloudy>, fillcolor="#39e5814d"] ;
524 -> 526 ;
527 [label=<Longitude &le; -1.433<br/>entropy = 0.997<br/>samples = 49<br/>value = [23, 26, 0]<br/>class = Cloudy>, fillcolor="#39e5811d"] ;
526 -> 527 ;
528 [label=<entropy = 0.0<br/>samples = 4<br/>value = [0, 4, 0]<br/>class = Cloudy>, fillcolor="#39e581ff"] ;
527 -> 528 ;
529 [label=<Humidity &le; -1.958<br/>entropy = 1.0<br/>samples = 45<br/>value = [23, 22, 0]<br/>class = Clear>, fillcolor="#e581390b"] ;
527 -> 529 ;
530 [label=<entropy = 0.0<br/>samples = 8<br/>value = [8, 0, 0]<br/>class = Clear>, fillcolor="#e58139ff"] ;
529 -> 530 ;
531 [label=<Wind Direction &le; -0.627<br/>entropy = 0.974<br/>samples = 37<br/>value = [15, 22, 0]<br/>class = Cloudy>, fillcolor="#39e58151"] ;
529 -> 531 ;
532 [label=<Wind Direction &le; -1.54<br/>entropy = 0.567<br/>samples = 15<br/>value = [2, 13, 0]<br/>class = Cloudy>, fillcolor="#39e581d8"] ;
531 -> 532 ;
533 [label=<Wind Direction &le; -1.844<br/>entropy = 1.0<br/>samples = 4<br/>value = [2, 2, 0]<br/>class = Clear>, fillcolor="#e5813900"] ;
532 -> 533 ;
534 [label=<entropy = 0.0<br/>samples = 2<br/>value = [0, 2, 0]<br/>class = Cloudy>, fillcolor="#39e581ff"] ;
533 -> 534 ;
535 [label=<entropy = 0.0<br/>samples = 2<br/>value = [2, 0, 0]<br/>class = Clear>, fillcolor="#e58139ff"] ;
533 -> 535 ;
536 [label=<entropy = 0.0<br/>samples = 11<br/>value = [0, 11, 0]<br/>class = Cloudy>, fillcolor="#39e581ff"] ;
532 -> 536 ;
537 [label=<Humidity &le; -0.91<br/>entropy = 0.976<br/>samples = 22<br/>value = [13, 9, 0]<br/>class = Clear>, fillcolor="#e581394e"] ;
531 -> 537 ;
538 [label=<Longitude &le; 0.325<br/>entropy = 0.764<br/>samples = 9<br/>value = [2, 7, 0]<br/>class = Cloudy>, fillcolor="#39e581b6"] ;
537 -> 538 ;
539 [label=<Longitude &le; -0.563<br/>entropy = 0.544<br/>samples = 8<br/>value = [1, 7, 0]<br/>class = Cloudy>, fillcolor="#39e581db"] ;
538 -> 539 ;
540 [label=<Temperature &le; -1.001<br/>entropy = 0.918<br/>samples = 3<br/>value = [1, 2, 0]<br/>class = Cloudy>, fillcolor="#39e5817f"] ;
539 -> 540 ;
541 [label=<entropy = 0.0<br/>samples = 1<br/>value = [1, 0, 0]<br/>class = Clear>, fillcolor="#e58139ff"] ;
540 -> 541 ;
542 [label=<entropy = 0.0<br/>samples = 2<br/>value = [0, 2, 0]<br/>class = Cloudy>, fillcolor="#39e581ff"] ;
540 -> 542 ;
543 [label=<entropy = 0.0<br/>samples = 5<br/>value = [0, 5, 0]<br/>class = Cloudy>, fillcolor="#39e581ff"] ;
539 -> 543 ;
544 [label=<entropy = 0.0<br/>samples = 1<br/>value = [1, 0, 0]<br/>class = Clear>, fillcolor="#e58139ff"] ;
538 -> 544 ;
545 [label=<Temperature &le; -2.212<br/>entropy = 0.619<br/>samples = 13<br/>value = [11, 2, 0]<br/>class = Clear>, fillcolor="#e58139d1"] ;
537 -> 545 ;
546 [label=<Dew Point &le; -2.044<br/>entropy = 0.918<br/>samples = 3<br/>value = [1, 2, 0]<br/>class = Cloudy>, fillcolor="#39e5817f"] ;
545 -> 546 ;
547 [label=<entropy = 0.0<br/>samples = 1<br/>value = [1, 0, 0]<br/>class = Clear>, fillcolor="#e58139ff"] ;
546 -> 547 ;
548 [label=<entropy = 0.0<br/>samples = 2<br/>value = [0, 2, 0]<br/>class = Cloudy>, fillcolor="#39e581ff"] ;
546 -> 548 ;
549 [label=<entropy = 0.0<br/>samples = 10<br/>value = [10, 0, 0]<br/>class = Clear>, fillcolor="#e58139ff"] ;
545 -> 549 ;
550 [label=<entropy = 0.0<br/>samples = 7<br/>value = [0, 7, 0]<br/>class = Cloudy>, fillcolor="#39e581ff"] ;
526 -> 550 ;
551 [label=<entropy = 0.0<br/>samples = 7<br/>value = [0, 7, 0]<br/>class = Cloudy>, fillcolor="#39e581ff"] ;
523 -> 551 ;
552 [label=<Temperature &le; -1.987<br/>entropy = 0.503<br/>samples = 18<br/>value = [2, 16, 0]<br/>class = Cloudy>, fillcolor="#39e581df"] ;
522 -> 552 ;
553 [label=<Wind Direction &le; -0.932<br/>entropy = 1.0<br/>samples = 4<br/>value = [2, 2, 0]<br/>class = Clear>, fillcolor="#e5813900"] ;
552 -> 553 ;
554 [label=<entropy = 0.0<br/>samples = 2<br/>value = [0, 2, 0]<br/>class = Cloudy>, fillcolor="#39e581ff"] ;
553 -> 554 ;
555 [label=<entropy = 0.0<br/>samples = 2<br/>value = [2, 0, 0]<br/>class = Clear>, fillcolor="#e58139ff"] ;
553 -> 555 ;
556 [label=<entropy = 0.0<br/>samples = 14<br/>value = [0, 14, 0]<br/>class = Cloudy>, fillcolor="#39e581ff"] ;
552 -> 556 ;
557 [label=<Pressure &le; -1.712<br/>entropy = 0.636<br/>samples = 832<br/>value = [66, 733, 33]<br/>class = Cloudy>, fillcolor="#39e581de"] ;
469 -> 557 ;
558 [label=<Humidity &le; -1.134<br/>entropy = 1.024<br/>samples = 173<br/>value = [23, 132, 18]<br/>class = Cloudy>, fillcolor="#39e581b9"] ;
557 -> 558 ;
559 [label=<Longitude &le; -0.136<br/>entropy = 0.999<br/>samples = 29<br/>value = [15, 14, 0]<br/>class = Clear>, fillcolor="#e5813911"] ;
558 -> 559 ;
560 [label=<Humidity &le; -1.515<br/>entropy = 0.722<br/>samples = 15<br/>value = [3, 12, 0]<br/>class = Cloudy>, fillcolor="#39e581bf"] ;
559 -> 560 ;
561 [label=<entropy = 0.0<br/>samples = 8<br/>value = [0, 8, 0]<br/>class = Cloudy>, fillcolor="#39e581ff"] ;
560 -> 561 ;
562 [label=<Visibilty &le; 2.091<br/>entropy = 0.985<br/>samples = 7<br/>value = [3, 4, 0]<br/>class = Cloudy>, fillcolor="#39e58140"] ;
560 -> 562 ;
563 [label=<Wind Direction &le; 0.133<br/>entropy = 0.722<br/>samples = 5<br/>value = [1, 4, 0]<br/>class = Cloudy>, fillcolor="#39e581bf"] ;
562 -> 563 ;
564 [label=<entropy = 0.0<br/>samples = 4<br/>value = [0, 4, 0]<br/>class = Cloudy>, fillcolor="#39e581ff"] ;
563 -> 564 ;
565 [label=<entropy = 0.0<br/>samples = 1<br/>value = [1, 0, 0]<br/>class = Clear>, fillcolor="#e58139ff"] ;
563 -> 565 ;
566 [label=<entropy = 0.0<br/>samples = 2<br/>value = [2, 0, 0]<br/>class = Clear>, fillcolor="#e58139ff"] ;
562 -> 566 ;
567 [label=<Humidity &le; -1.459<br/>entropy = 0.592<br/>samples = 14<br/>value = [12, 2, 0]<br/>class = Clear>, fillcolor="#e58139d4"] ;
559 -> 567 ;
568 [label=<entropy = 0.0<br/>samples = 9<br/>value = [9, 0, 0]<br/>class = Clear>, fillcolor="#e58139ff"] ;
567 -> 568 ;
569 [label=<Humidity &le; -1.332<br/>entropy = 0.971<br/>samples = 5<br/>value = [3, 2, 0]<br/>class = Clear>, fillcolor="#e5813955"] ;
567 -> 569 ;
570 [label=<entropy = 0.0<br/>samples = 2<br/>value = [0, 2, 0]<br/>class = Cloudy>, fillcolor="#39e581ff"] ;
569 -> 570 ;
571 [label=<entropy = 0.0<br/>samples = 3<br/>value = [3, 0, 0]<br/>class = Clear>, fillcolor="#e58139ff"] ;
569 -> 571 ;
572 [label=<Dew Point &le; -0.794<br/>entropy = 0.842<br/>samples = 144<br/>value = [8, 118, 18]<br/>class = Cloudy>, fillcolor="#39e581ca"] ;
558 -> 572 ;
573 [label=<Visibilty &le; -0.066<br/>entropy = 1.399<br/>samples = 27<br/>value = [4, 15, 8]<br/>class = Cloudy>, fillcolor="#39e5815e"] ;
572 -> 573 ;
574 [label=<Dew Point &le; -0.903<br/>entropy = 0.65<br/>samples = 6<br/>value = [0, 1, 5]<br/>class = Precipitation>, fillcolor="#8139e5cc"] ;
573 -> 574 ;
575 [label=<entropy = 0.0<br/>samples = 3<br/>value = [0, 0, 3]<br/>class = Precipitation>, fillcolor="#8139e5ff"] ;
574 -> 575 ;
576 [label=<Longitude &le; -1.383<br/>entropy = 0.918<br/>samples = 3<br/>value = [0, 1, 2]<br/>class = Precipitation>, fillcolor="#8139e57f"] ;
574 -> 576 ;
577 [label=<entropy = 0.0<br/>samples = 1<br/>value = [0, 1, 0]<br/>class = Cloudy>, fillcolor="#39e581ff"] ;
576 -> 577 ;
578 [label=<entropy = 0.0<br/>samples = 2<br/>value = [0, 0, 2]<br/>class = Precipitation>, fillcolor="#8139e5ff"] ;
576 -> 578 ;
579 [label=<Latitude &le; 1.406<br/>entropy = 1.247<br/>samples = 21<br/>value = [4, 14, 3]<br/>class = Cloudy>, fillcolor="#39e58196"] ;
573 -> 579 ;
580 [label=<Latitude &le; 0.971<br/>entropy = 1.485<br/>samples = 10<br/>value = [2, 5, 3]<br/>class = Cloudy>, fillcolor="#39e58149"] ;
579 -> 580 ;
581 [label=<Temperature &le; -0.522<br/>entropy = 0.863<br/>samples = 7<br/>value = [2, 5, 0]<br/>class = Cloudy>, fillcolor="#39e58199"] ;
580 -> 581 ;
582 [label=<Visibilty &le; 0.277<br/>entropy = 0.65<br/>samples = 6<br/>value = [1, 5, 0]<br/>class = Cloudy>, fillcolor="#39e581cc"] ;
581 -> 582 ;
583 [label=<entropy = 0.0<br/>samples = 1<br/>value = [1, 0, 0]<br/>class = Clear>, fillcolor="#e58139ff"] ;
582 -> 583 ;
584 [label=<entropy = 0.0<br/>samples = 5<br/>value = [0, 5, 0]<br/>class = Cloudy>, fillcolor="#39e581ff"] ;
582 -> 584 ;
585 [label=<entropy = 0.0<br/>samples = 1<br/>value = [1, 0, 0]<br/>class = Clear>, fillcolor="#e58139ff"] ;
581 -> 585 ;
586 [label=<entropy = 0.0<br/>samples = 3<br/>value = [0, 0, 3]<br/>class = Precipitation>, fillcolor="#8139e5ff"] ;
580 -> 586 ;
587 [label=<Pressure &le; -2.645<br/>entropy = 0.684<br/>samples = 11<br/>value = [2, 9, 0]<br/>class = Cloudy>, fillcolor="#39e581c6"] ;
579 -> 587 ;
588 [label=<Wind Direction &le; -0.171<br/>entropy = 0.918<br/>samples = 3<br/>value = [2, 1, 0]<br/>class = Clear>, fillcolor="#e581397f"] ;
587 -> 588 ;
589 [label=<entropy = 0.0<br/>samples = 2<br/>value = [2, 0, 0]<br/>class = Clear>, fillcolor="#e58139ff"] ;
588 -> 589 ;
590 [label=<entropy = 0.0<br/>samples = 1<br/>value = [0, 1, 0]<br/>class = Cloudy>, fillcolor="#39e581ff"] ;
588 -> 590 ;
591 [label=<entropy = 0.0<br/>samples = 8<br/>value = [0, 8, 0]<br/>class = Cloudy>, fillcolor="#39e581ff"] ;
587 -> 591 ;
592 [label=<Humidity &le; -0.722<br/>entropy = 0.632<br/>samples = 117<br/>value = [4, 103, 10]<br/>class = Cloudy>, fillcolor="#39e581de"] ;
572 -> 592 ;
593 [label=<Latitude &le; 1.832<br/>entropy = 0.912<br/>samples = 23<br/>value = [4, 18, 1]<br/>class = Cloudy>, fillcolor="#39e581bc"] ;
592 -> 593 ;
594 [label=<Latitude &le; 1.507<br/>entropy = 0.684<br/>samples = 22<br/>value = [4, 18, 0]<br/>class = Cloudy>, fillcolor="#39e581c6"] ;
593 -> 594 ;
595 [label=<Dew Point &le; -0.413<br/>entropy = 0.918<br/>samples = 12<br/>value = [4, 8, 0]<br/>class = Cloudy>, fillcolor="#39e5817f"] ;
594 -> 595 ;
596 [label=<Visibilty &le; 0.893<br/>entropy = 0.991<br/>samples = 9<br/>value = [4, 5, 0]<br/>class = Cloudy>, fillcolor="#39e58133"] ;
595 -> 596 ;
597 [label=<entropy = 0.0<br/>samples = 3<br/>value = [3, 0, 0]<br/>class = Clear>, fillcolor="#e58139ff"] ;
596 -> 597 ;
598 [label=<Longitude &le; -0.225<br/>entropy = 0.65<br/>samples = 6<br/>value = [1, 5, 0]<br/>class = Cloudy>, fillcolor="#39e581cc"] ;
596 -> 598 ;
599 [label=<entropy = 0.0<br/>samples = 1<br/>value = [1, 0, 0]<br/>class = Clear>, fillcolor="#e58139ff"] ;
598 -> 599 ;
600 [label=<entropy = 0.0<br/>samples = 5<br/>value = [0, 5, 0]<br/>class = Cloudy>, fillcolor="#39e581ff"] ;
598 -> 600 ;
601 [label=<entropy = 0.0<br/>samples = 3<br/>value = [0, 3, 0]<br/>class = Cloudy>, fillcolor="#39e581ff"] ;
595 -> 601 ;
602 [label=<entropy = 0.0<br/>samples = 10<br/>value = [0, 10, 0]<br/>class = Cloudy>, fillcolor="#39e581ff"] ;
594 -> 602 ;
603 [label=<entropy = 0.0<br/>samples = 1<br/>value = [0, 0, 1]<br/>class = Precipitation>, fillcolor="#8139e5ff"] ;
593 -> 603 ;
604 [label=<Visibilty &le; 1.235<br/>entropy = 0.455<br/>samples = 94<br/>value = [0, 85, 9]<br/>class = Cloudy>, fillcolor="#39e581e4"] ;
592 -> 604 ;
605 [label=<Wind Direction &le; 0.893<br/>entropy = 0.636<br/>samples = 56<br/>value = [0, 47, 9]<br/>class = Cloudy>, fillcolor="#39e581ce"] ;
604 -> 605 ;
606 [label=<Longitude &le; -0.67<br/>entropy = 0.556<br/>samples = 54<br/>value = [0, 47, 7]<br/>class = Cloudy>, fillcolor="#39e581d9"] ;
605 -> 606 ;
607 [label=<entropy = 0.0<br/>samples = 19<br/>value = [0, 19, 0]<br/>class = Cloudy>, fillcolor="#39e581ff"] ;
606 -> 607 ;
608 [label=<Longitude &le; -0.207<br/>entropy = 0.722<br/>samples = 35<br/>value = [0, 28, 7]<br/>class = Cloudy>, fillcolor="#39e581bf"] ;
606 -> 608 ;
609 [label=<Visibilty &le; 0.893<br/>entropy = 0.991<br/>samples = 9<br/>value = [0, 4, 5]<br/>class = Precipitation>, fillcolor="#8139e533"] ;
608 -> 609 ;
610 [label=<Dew Point &le; -0.209<br/>entropy = 0.863<br/>samples = 7<br/>value = [0, 2, 5]<br/>class = Precipitation>, fillcolor="#8139e599"] ;
609 -> 610 ;
611 [label=<entropy = 0.0<br/>samples = 4<br/>value = [0, 0, 4]<br/>class = Precipitation>, fillcolor="#8139e5ff"] ;
610 -> 611 ;
612 [label=<Longitude &le; -0.447<br/>entropy = 0.918<br/>samples = 3<br/>value = [0, 2, 1]<br/>class = Cloudy>, fillcolor="#39e5817f"] ;
610 -> 612 ;
613 [label=<entropy = 0.0<br/>samples = 2<br/>value = [0, 2, 0]<br/>class = Cloudy>, fillcolor="#39e581ff"] ;
612 -> 613 ;
614 [label=<entropy = 0.0<br/>samples = 1<br/>value = [0, 0, 1]<br/>class = Precipitation>, fillcolor="#8139e5ff"] ;
612 -> 614 ;
615 [label=<entropy = 0.0<br/>samples = 2<br/>value = [0, 2, 0]<br/>class = Cloudy>, fillcolor="#39e581ff"] ;
609 -> 615 ;
616 [label=<Humidity &le; -0.473<br/>entropy = 0.391<br/>samples = 26<br/>value = [0, 24, 2]<br/>class = Cloudy>, fillcolor="#39e581ea"] ;
608 -> 616 ;
617 [label=<entropy = 0.0<br/>samples = 1<br/>value = [0, 0, 1]<br/>class = Precipitation>, fillcolor="#8139e5ff"] ;
616 -> 617 ;
618 [label=<Dew Point &le; -0.644<br/>entropy = 0.242<br/>samples = 25<br/>value = [0, 24, 1]<br/>class = Cloudy>, fillcolor="#39e581f4"] ;
616 -> 618 ;
619 [label=<Longitude &le; 0.222<br/>entropy = 0.918<br/>samples = 3<br/>value = [0, 2, 1]<br/>class = Cloudy>, fillcolor="#39e5817f"] ;
618 -> 619 ;
620 [label=<entropy = 0.0<br/>samples = 1<br/>value = [0, 0, 1]<br/>class = Precipitation>, fillcolor="#8139e5ff"] ;
619 -> 620 ;
621 [label=<entropy = 0.0<br/>samples = 2<br/>value = [0, 2, 0]<br/>class = Cloudy>, fillcolor="#39e581ff"] ;
619 -> 621 ;
622 [label=<entropy = 0.0<br/>samples = 22<br/>value = [0, 22, 0]<br/>class = Cloudy>, fillcolor="#39e581ff"] ;
618 -> 622 ;
623 [label=<entropy = 0.0<br/>samples = 2<br/>value = [0, 0, 2]<br/>class = Precipitation>, fillcolor="#8139e5ff"] ;
605 -> 623 ;
624 [label=<entropy = 0.0<br/>samples = 38<br/>value = [0, 38, 0]<br/>class = Cloudy>, fillcolor="#39e581ff"] ;
604 -> 624 ;
625 [label=<Pressure &le; -0.429<br/>entropy = 0.502<br/>samples = 659<br/>value = [43, 601, 15]<br/>class = Cloudy>, fillcolor="#39e581e7"] ;
557 -> 625 ;
626 [label=<Longitude &le; -2.154<br/>entropy = 0.344<br/>samples = 408<br/>value = [10, 387, 11]<br/>class = Cloudy>, fillcolor="#39e581f2"] ;
625 -> 626 ;
627 [label=<Pressure &le; -0.954<br/>entropy = 1.352<br/>samples = 9<br/>value = [1, 5, 3]<br/>class = Cloudy>, fillcolor="#39e58155"] ;
626 -> 627 ;
628 [label=<Latitude &le; -0.717<br/>entropy = 1.371<br/>samples = 5<br/>value = [1, 1, 3]<br/>class = Precipitation>, fillcolor="#8139e57f"] ;
627 -> 628 ;
629 [label=<entropy = 0.0<br/>samples = 1<br/>value = [1, 0, 0]<br/>class = Clear>, fillcolor="#e58139ff"] ;
628 -> 629 ;
630 [label=<Humidity &le; -1.068<br/>entropy = 0.811<br/>samples = 4<br/>value = [0, 1, 3]<br/>class = Precipitation>, fillcolor="#8139e5aa"] ;
628 -> 630 ;
631 [label=<Wind Direction &le; 0.893<br/>entropy = 1.0<br/>samples = 2<br/>value = [0, 1, 1]<br/>class = Cloudy>, fillcolor="#39e58100"] ;
630 -> 631 ;
632 [label=<entropy = 0.0<br/>samples = 1<br/>value = [0, 1, 0]<br/>class = Cloudy>, fillcolor="#39e581ff"] ;
631 -> 632 ;
633 [label=<entropy = 0.0<br/>samples = 1<br/>value = [0, 0, 1]<br/>class = Precipitation>, fillcolor="#8139e5ff"] ;
631 -> 633 ;
634 [label=<entropy = 0.0<br/>samples = 2<br/>value = [0, 0, 2]<br/>class = Precipitation>, fillcolor="#8139e5ff"] ;
630 -> 634 ;
635 [label=<entropy = 0.0<br/>samples = 4<br/>value = [0, 4, 0]<br/>class = Cloudy>, fillcolor="#39e581ff"] ;
627 -> 635 ;
636 [label=<Latitude &le; 1.257<br/>entropy = 0.297<br/>samples = 399<br/>value = [9, 382, 8]<br/>class = Cloudy>, fillcolor="#39e581f4"] ;
626 -> 636 ;
637 [label=<Wind Direction &le; -0.932<br/>entropy = 0.096<br/>samples = 279<br/>value = [2, 276, 1]<br/>class = Cloudy>, fillcolor="#39e581fc"] ;
636 -> 637 ;
638 [label=<Latitude &le; 0.74<br/>entropy = 0.605<br/>samples = 27<br/>value = [2, 24, 1]<br/>class = Cloudy>, fillcolor="#39e581e0"] ;
637 -> 638 ;
639 [label=<Latitude &le; 0.383<br/>entropy = 0.391<br/>samples = 26<br/>value = [2, 24, 0]<br/>class = Cloudy>, fillcolor="#39e581ea"] ;
638 -> 639 ;
640 [label=<Humidity &le; 0.493<br/>entropy = 0.764<br/>samples = 9<br/>value = [2, 7, 0]<br/>class = Cloudy>, fillcolor="#39e581b6"] ;
639 -> 640 ;
641 [label=<entropy = 0.0<br/>samples = 7<br/>value = [0, 7, 0]<br/>class = Cloudy>, fillcolor="#39e581ff"] ;
640 -> 641 ;
642 [label=<entropy = 0.0<br/>samples = 2<br/>value = [2, 0, 0]<br/>class = Clear>, fillcolor="#e58139ff"] ;
640 -> 642 ;
643 [label=<entropy = 0.0<br/>samples = 17<br/>value = [0, 17, 0]<br/>class = Cloudy>, fillcolor="#39e581ff"] ;
639 -> 643 ;
644 [label=<entropy = 0.0<br/>samples = 1<br/>value = [0, 0, 1]<br/>class = Precipitation>, fillcolor="#8139e5ff"] ;
638 -> 644 ;
645 [label=<entropy = 0.0<br/>samples = 252<br/>value = [0, 252, 0]<br/>class = Cloudy>, fillcolor="#39e581ff"] ;
637 -> 645 ;
646 [label=<Latitude &le; 1.686<br/>entropy = 0.636<br/>samples = 120<br/>value = [7, 106, 7]<br/>class = Cloudy>, fillcolor="#39e581df"] ;
636 -> 646 ;
647 [label=<Pressure &le; -1.479<br/>entropy = 0.633<br/>samples = 73<br/>value = [7, 64, 2]<br/>class = Cloudy>, fillcolor="#39e581dc"] ;
646 -> 647 ;
648 [label=<Longitude &le; -0.044<br/>entropy = 0.831<br/>samples = 19<br/>value = [5, 14, 0]<br/>class = Cloudy>, fillcolor="#39e581a4"] ;
647 -> 648 ;
649 [label=<Wind Direction &le; -0.323<br/>entropy = 0.592<br/>samples = 14<br/>value = [2, 12, 0]<br/>class = Cloudy>, fillcolor="#39e581d4"] ;
648 -> 649 ;
650 [label=<entropy = 0.0<br/>samples = 7<br/>value = [0, 7, 0]<br/>class = Cloudy>, fillcolor="#39e581ff"] ;
649 -> 650 ;
651 [label=<Humidity &le; -1.195<br/>entropy = 0.863<br/>samples = 7<br/>value = [2, 5, 0]<br/>class = Cloudy>, fillcolor="#39e58199"] ;
649 -> 651 ;
652 [label=<entropy = 0.0<br/>samples = 4<br/>value = [0, 4, 0]<br/>class = Cloudy>, fillcolor="#39e581ff"] ;
651 -> 652 ;
653 [label=<Visibilty &le; 0.208<br/>entropy = 0.918<br/>samples = 3<br/>value = [2, 1, 0]<br/>class = Clear>, fillcolor="#e581397f"] ;
651 -> 653 ;
654 [label=<entropy = 0.0<br/>samples = 1<br/>value = [0, 1, 0]<br/>class = Cloudy>, fillcolor="#39e581ff"] ;
653 -> 654 ;
655 [label=<entropy = 0.0<br/>samples = 2<br/>value = [2, 0, 0]<br/>class = Clear>, fillcolor="#e58139ff"] ;
653 -> 655 ;
656 [label=<Dew Point &le; -0.427<br/>entropy = 0.971<br/>samples = 5<br/>value = [3, 2, 0]<br/>class = Clear>, fillcolor="#e5813955"] ;
648 -> 656 ;
657 [label=<entropy = 0.0<br/>samples = 2<br/>value = [2, 0, 0]<br/>class = Clear>, fillcolor="#e58139ff"] ;
656 -> 657 ;
658 [label=<Longitude &le; 0.325<br/>entropy = 0.918<br/>samples = 3<br/>value = [1, 2, 0]<br/>class = Cloudy>, fillcolor="#39e5817f"] ;
656 -> 658 ;
659 [label=<entropy = 0.0<br/>samples = 2<br/>value = [0, 2, 0]<br/>class = Cloudy>, fillcolor="#39e581ff"] ;
658 -> 659 ;
660 [label=<entropy = 0.0<br/>samples = 1<br/>value = [1, 0, 0]<br/>class = Clear>, fillcolor="#e58139ff"] ;
658 -> 660 ;
661 [label=<Longitude &le; -0.203<br/>entropy = 0.455<br/>samples = 54<br/>value = [2, 50, 2]<br/>class = Cloudy>, fillcolor="#39e581eb"] ;
647 -> 661 ;
662 [label=<Dew Point &le; -0.196<br/>entropy = 0.371<br/>samples = 28<br/>value = [0, 26, 2]<br/>class = Cloudy>, fillcolor="#39e581eb"] ;
661 -> 662 ;
663 [label=<Temperature &le; 0.182<br/>entropy = 0.229<br/>samples = 27<br/>value = [0, 26, 1]<br/>class = Cloudy>, fillcolor="#39e581f5"] ;
662 -> 663 ;
664 [label=<entropy = 0.0<br/>samples = 23<br/>value = [0, 23, 0]<br/>class = Cloudy>, fillcolor="#39e581ff"] ;
663 -> 664 ;
665 [label=<Humidity &le; -1.546<br/>entropy = 0.811<br/>samples = 4<br/>value = [0, 3, 1]<br/>class = Cloudy>, fillcolor="#39e581aa"] ;
663 -> 665 ;
666 [label=<entropy = 0.0<br/>samples = 3<br/>value = [0, 3, 0]<br/>class = Cloudy>, fillcolor="#39e581ff"] ;
665 -> 666 ;
667 [label=<entropy = 0.0<br/>samples = 1<br/>value = [0, 0, 1]<br/>class = Precipitation>, fillcolor="#8139e5ff"] ;
665 -> 667 ;
668 [label=<entropy = 0.0<br/>samples = 1<br/>value = [0, 0, 1]<br/>class = Precipitation>, fillcolor="#8139e5ff"] ;
662 -> 668 ;
669 [label=<Latitude &le; 1.449<br/>entropy = 0.391<br/>samples = 26<br/>value = [2, 24, 0]<br/>class = Cloudy>, fillcolor="#39e581ea"] ;
661 -> 669 ;
670 [label=<entropy = 0.0<br/>samples = 15<br/>value = [0, 15, 0]<br/>class = Cloudy>, fillcolor="#39e581ff"] ;
669 -> 670 ;
671 [label=<Visibilty &le; 0.208<br/>entropy = 0.684<br/>samples = 11<br/>value = [2, 9, 0]<br/>class = Cloudy>, fillcolor="#39e581c6"] ;
669 -> 671 ;
672 [label=<entropy = 0.0<br/>samples = 1<br/>value = [1, 0, 0]<br/>class = Clear>, fillcolor="#e58139ff"] ;
671 -> 672 ;
673 [label=<Pressure &le; -0.779<br/>entropy = 0.469<br/>samples = 10<br/>value = [1, 9, 0]<br/>class = Cloudy>, fillcolor="#39e581e3"] ;
671 -> 673 ;
674 [label=<entropy = 0.0<br/>samples = 8<br/>value = [0, 8, 0]<br/>class = Cloudy>, fillcolor="#39e581ff"] ;
673 -> 674 ;
675 [label=<Wind Direction &le; -0.475<br/>entropy = 1.0<br/>samples = 2<br/>value = [1, 1, 0]<br/>class = Clear>, fillcolor="#e5813900"] ;
673 -> 675 ;
676 [label=<entropy = 0.0<br/>samples = 1<br/>value = [0, 1, 0]<br/>class = Cloudy>, fillcolor="#39e581ff"] ;
675 -> 676 ;
677 [label=<entropy = 0.0<br/>samples = 1<br/>value = [1, 0, 0]<br/>class = Clear>, fillcolor="#e58139ff"] ;
675 -> 677 ;
678 [label=<Visibilty &le; -0.066<br/>entropy = 0.489<br/>samples = 47<br/>value = [0, 42, 5]<br/>class = Cloudy>, fillcolor="#39e581e1"] ;
646 -> 678 ;
679 [label=<Longitude &le; -0.008<br/>entropy = 0.954<br/>samples = 8<br/>value = [0, 5, 3]<br/>class = Cloudy>, fillcolor="#39e58166"] ;
678 -> 679 ;
680 [label=<Humidity &le; -0.641<br/>entropy = 0.811<br/>samples = 4<br/>value = [0, 1, 3]<br/>class = Precipitation>, fillcolor="#8139e5aa"] ;
679 -> 680 ;
681 [label=<Wind Direction &le; -0.627<br/>entropy = 1.0<br/>samples = 2<br/>value = [0, 1, 1]<br/>class = Cloudy>, fillcolor="#39e58100"] ;
680 -> 681 ;
682 [label=<entropy = 0.0<br/>samples = 1<br/>value = [0, 0, 1]<br/>class = Precipitation>, fillcolor="#8139e5ff"] ;
681 -> 682 ;
683 [label=<entropy = 0.0<br/>samples = 1<br/>value = [0, 1, 0]<br/>class = Cloudy>, fillcolor="#39e581ff"] ;
681 -> 683 ;
684 [label=<entropy = 0.0<br/>samples = 2<br/>value = [0, 0, 2]<br/>class = Precipitation>, fillcolor="#8139e5ff"] ;
680 -> 684 ;
685 [label=<entropy = 0.0<br/>samples = 4<br/>value = [0, 4, 0]<br/>class = Cloudy>, fillcolor="#39e581ff"] ;
679 -> 685 ;
686 [label=<Temperature &le; -0.973<br/>entropy = 0.292<br/>samples = 39<br/>value = [0, 37, 2]<br/>class = Cloudy>, fillcolor="#39e581f1"] ;
678 -> 686 ;
687 [label=<entropy = 0.0<br/>samples = 1<br/>value = [0, 0, 1]<br/>class = Precipitation>, fillcolor="#8139e5ff"] ;
686 -> 687 ;
688 [label=<Temperature &le; -0.015<br/>entropy = 0.176<br/>samples = 38<br/>value = [0, 37, 1]<br/>class = Cloudy>, fillcolor="#39e581f8"] ;
686 -> 688 ;
689 [label=<entropy = 0.0<br/>samples = 32<br/>value = [0, 32, 0]<br/>class = Cloudy>, fillcolor="#39e581ff"] ;
688 -> 689 ;
690 [label=<Latitude &le; 1.954<br/>entropy = 0.65<br/>samples = 6<br/>value = [0, 5, 1]<br/>class = Cloudy>, fillcolor="#39e581cc"] ;
688 -> 690 ;
691 [label=<entropy = 0.0<br/>samples = 5<br/>value = [0, 5, 0]<br/>class = Cloudy>, fillcolor="#39e581ff"] ;
690 -> 691 ;
692 [label=<entropy = 0.0<br/>samples = 1<br/>value = [0, 0, 1]<br/>class = Precipitation>, fillcolor="#8139e5ff"] ;
690 -> 692 ;
693 [label=<Longitude &le; -0.064<br/>entropy = 0.676<br/>samples = 251<br/>value = [33, 214, 4]<br/>class = Cloudy>, fillcolor="#39e581d4"] ;
625 -> 693 ;
694 [label=<Longitude &le; -1.091<br/>entropy = 0.705<br/>samples = 141<br/>value = [27, 114, 0]<br/>class = Cloudy>, fillcolor="#39e581c3"] ;
693 -> 694 ;
695 [label=<Wind Direction &le; -2.452<br/>entropy = 0.121<br/>samples = 61<br/>value = [1, 60, 0]<br/>class = Cloudy>, fillcolor="#39e581fb"] ;
694 -> 695 ;
696 [label=<Latitude &le; 0.698<br/>entropy = 0.918<br/>samples = 3<br/>value = [1, 2, 0]<br/>class = Cloudy>, fillcolor="#39e5817f"] ;
695 -> 696 ;
697 [label=<entropy = 0.0<br/>samples = 1<br/>value = [1, 0, 0]<br/>class = Clear>, fillcolor="#e58139ff"] ;
696 -> 697 ;
698 [label=<entropy = 0.0<br/>samples = 2<br/>value = [0, 2, 0]<br/>class = Cloudy>, fillcolor="#39e581ff"] ;
696 -> 698 ;
699 [label=<entropy = 0.0<br/>samples = 58<br/>value = [0, 58, 0]<br/>class = Cloudy>, fillcolor="#39e581ff"] ;
695 -> 699 ;
700 [label=<Visibilty &le; 1.577<br/>entropy = 0.91<br/>samples = 80<br/>value = [26, 54, 0]<br/>class = Cloudy>, fillcolor="#39e58184"] ;
694 -> 700 ;
701 [label=<Temperature &le; 0.295<br/>entropy = 0.995<br/>samples = 48<br/>value = [22, 26, 0]<br/>class = Cloudy>, fillcolor="#39e58127"] ;
700 -> 701 ;
702 [label=<Latitude &le; 0.501<br/>entropy = 0.918<br/>samples = 39<br/>value = [13, 26, 0]<br/>class = Cloudy>, fillcolor="#39e5817f"] ;
701 -> 702 ;
703 [label=<Latitude &le; 0.45<br/>entropy = 0.999<br/>samples = 27<br/>value = [13, 14, 0]<br/>class = Cloudy>, fillcolor="#39e58112"] ;
702 -> 703 ;
704 [label=<Wind Direction &le; 0.589<br/>entropy = 0.918<br/>samples = 21<br/>value = [7, 14, 0]<br/>class = Cloudy>, fillcolor="#39e5817f"] ;
703 -> 704 ;
705 [label=<Visibilty &le; 0.071<br/>entropy = 0.592<br/>samples = 14<br/>value = [2, 12, 0]<br/>class = Cloudy>, fillcolor="#39e581d4"] ;
704 -> 705 ;
706 [label=<Pressure &le; -0.138<br/>entropy = 0.918<br/>samples = 3<br/>value = [2, 1, 0]<br/>class = Clear>, fillcolor="#e581397f"] ;
705 -> 706 ;
707 [label=<entropy = 0.0<br/>samples = 2<br/>value = [2, 0, 0]<br/>class = Clear>, fillcolor="#e58139ff"] ;
706 -> 707 ;
708 [label=<entropy = 0.0<br/>samples = 1<br/>value = [0, 1, 0]<br/>class = Cloudy>, fillcolor="#39e581ff"] ;
706 -> 708 ;
709 [label=<entropy = 0.0<br/>samples = 11<br/>value = [0, 11, 0]<br/>class = Cloudy>, fillcolor="#39e581ff"] ;
705 -> 709 ;
710 [label=<Longitude &le; -0.5<br/>entropy = 0.863<br/>samples = 7<br/>value = [5, 2, 0]<br/>class = Clear>, fillcolor="#e5813999"] ;
704 -> 710 ;
711 [label=<entropy = 0.0<br/>samples = 2<br/>value = [0, 2, 0]<br/>class = Cloudy>, fillcolor="#39e581ff"] ;
710 -> 711 ;
712 [label=<entropy = 0.0<br/>samples = 5<br/>value = [5, 0, 0]<br/>class = Clear>, fillcolor="#e58139ff"] ;
710 -> 712 ;
713 [label=<entropy = 0.0<br/>samples = 6<br/>value = [6, 0, 0]<br/>class = Clear>, fillcolor="#e58139ff"] ;
703 -> 713 ;
714 [label=<entropy = 0.0<br/>samples = 12<br/>value = [0, 12, 0]<br/>class = Cloudy>, fillcolor="#39e581ff"] ;
702 -> 714 ;
715 [label=<entropy = 0.0<br/>samples = 9<br/>value = [9, 0, 0]<br/>class = Clear>, fillcolor="#e58139ff"] ;
701 -> 715 ;
716 [label=<Wind Direction &le; 1.349<br/>entropy = 0.544<br/>samples = 32<br/>value = [4, 28, 0]<br/>class = Cloudy>, fillcolor="#39e581db"] ;
700 -> 716 ;
717 [label=<Latitude &le; 0.025<br/>entropy = 0.459<br/>samples = 31<br/>value = [3, 28, 0]<br/>class = Cloudy>, fillcolor="#39e581e4"] ;
716 -> 717 ;
718 [label=<entropy = 0.0<br/>samples = 12<br/>value = [0, 12, 0]<br/>class = Cloudy>, fillcolor="#39e581ff"] ;
717 -> 718 ;
